tree
version=v4
num_class=1
num_tree_per_iteration=1
label_index=0
max_feature_idx=23
objective=binary sigmoid:1
feature_names=n_active_labelers n_active_anda is_generic labeler_hhi route_injectable dea_scheduled drug_age_years n_oai_12m n_oai_36m n_vai_12m n_insp_12m n_insp_24m worst_class_24m months_since_last_insp recalls_6m recalls_12m recalls_class1_24m months_since_last_recall nadac_latest_price nadac_price_trend_12m past_shortage_count months_since_last_shortage firm_ever_compliance_action related_shortages_active
feature_infos=[0:189] [0:174] [0:1] [0.0052910052910052907:1] [0:1] [0:1] [0:84.114989733059545] [0:6] [0:10] [0:13] [0:20] [0:26] [0:2] [0:169.31668856767411] [0:65] [0:71] [0:9] [0:128.02233902759525] [0.0058599999999999998:118.94206] [-1.2587725278876905:1.7690896353752055] [0:9] [11.990801576872535:117.96977660972404] [0:1] [0:311]
tree_sizes=1799 1808 1834 1819 1809 1831 1850 1824 1854 1851 1859 1878 1863 1867 1851 1861 1853 1865 1868 1859 1861 1848 1879 1863 1872 1865 1864 1862 1870 1866 1870 1851 1884 1869 1873 1883 1860 1866 1858 1871 1857 1849 1857 1880 1873 1877 1867 1880 1899 1868 1863 1884 1880 1885 1871 1875 1862 1860 1861 1866 1865 1868 1890 1869 1873 1871 1872 1903 1880 1883 1864 1872 1868 1891 1861 1853 1880 1869 1866

Tree=0
num_leaves=16
num_cat=0
split_feature=17 1 1 21 6 6 6 1 18 6 6 6 6 17 6
split_gain=916867 136386 118151 76458 47479.5 25019.4 15405.9 18607.4 14783.6 12320.3 10175 10694.8 9647.31 8682.11 8621.97
threshold=inf 1.0000000180025095e-35 1.5000000000000002 96.994086727989497 19.809719370294321 3.5359342915811092 2.6324435318275157 1.0000000180025095e-35 0.82651000000000019 13.750855578370981 5.8986995208761135 3.8343600273785081 31.727583846680357 71.567017082785824 7.5386721423682426
decision_type=8 2 2 8 2 2 2 2 8 2 2 2 2 10 2
left_child=2 4 3 -1 9 -4 -5 -8 -9 -2 11 -10 13 -7 -3
right_child=1 14 5 6 -6 12 7 8 10 -11 -12 -13 -14 -15 -16
leaf_value=-2.0436700359484909 -3.3729387187607038 -2.9744380965619874 -2.6790948490743132 -3.1393374520390123 -3.7692212497397124 -2.0855286964033124 -2.873493318805445 -3.4283987502417661 -2.4989887828259354 -2.8260279566607913 -2.2752858233330668 -3.68641869555442 -1.896538144247484 -2.4696102478610102 -2.5685947099146373
leaf_weight=472.25073705241084 827.97086423262954 204.03121154010296 175.19251695647836 245.42653393745422 1316.5446877032518 2222.1281071864069 676.71954647451639 37.217676512897015 59.31563501060009 117.6231968216598 367.86485381051898 27.893578369170427 681.72228736057878 159.80314983054996 370.61031941697001
leaf_count=5304 30821 6004 4143 8014 59209 26789 18582 1425 1192 3119 5797 1209 5697 3124 7966
internal_value=-2.67909 -3.40032 -2.27993 -2.59461 -3.57508 -2.09667 -2.77868 -2.70303 -2.46894 -3.30481 -2.39058 -2.87817 -2.0634 -2.11124 -2.71252
internal_weight=7962.31 2836.78 5125.53 1886.69 2262.14 3238.85 1414.44 1169.01 492.292 945.594 455.074 87.2092 3063.65 2381.93 574.642
internal_count=188395 107119 81276 41523 93149 39753 36219 28205 9623 33940 8198 2401 35610 29913 13970
is_linear=0
shrinkage=1


Tree=1
num_leaves=16
num_cat=0
split_feature=17 0 4 16 20 15 1 1 0 1 11 11 5 1 1
split_gain=14358 19354.4 6315.25 2993.97 3698.99 3717.23 2821.85 2511.07 1804.97 3424.64 1954.74 2288.85 1580.54 3318.3 1437.42
threshold=inf 1.5000000000000002 1.0000000180025095e-35 1.5000000000000002 2.5000000000000004 22.500000000000004 1.0000000180025095e-35 13.500000000000002 3.5000000000000004 1.0000000180025095e-35 1.0000000180025095e-35 2.5000000000000004 1.0000000180025095e-35 1.5000000000000002 5.5000000000000009
decision_type=8 2 2 2 2 2 2 2 2 2 2 2 2 2 2
left_child=3 2 6 -1 5 -5 -2 8 10 -10 12 -12 -3 -14 -11
right_child=1 7 -4 4 -6 -7 -8 -9 9 14 11 -13 13 -15 -16
leaf_value=0.33360142804957216 0.10754617953170187 0.22287626497572477 0.31822963307938013 0.016546210210884326 0.37898639383088673 0.45092645149990096 0.26468157930203479 -0.05331374168199135 0.90825245875022587 0.33957393316977258 0.45989805744550455 -0.052558054781861346 0.94834404021096275 -0.053004372687983484 0.49306973506397189
leaf_weight=20249.879633571953 2193.2720963228494 322.17966604977846 527.82792408019304 248.61462201550603 198.80846691131592 61.329865491017699 328.55722589045763 31.784981787204742 39.231657266616821 271.0834518969059 320.2527719642967 23.340116653591394 22.10118256509304 13.157281294465063 353.48258210718632
leaf_count=77634 77358 5576 11196 3186 237 219 4245 512 466 2221 2779 485 96 202 1983
internal_value=0.313123 0.231567 0.160961 0.33059 0.210688 0.102632 0.12803 0.385719 0.39595 0.455132 0.339848 0.425067 0.257819 0.57544 0.42652
internal_weight=25204.9 4446.27 3049.66 20758.6 508.753 309.944 2521.83 1396.61 1364.83 663.798 701.031 343.593 357.438 35.2585 624.566
internal_count=188395 107119 92799 81276 3642 3405 81603 14320 13808 4670 9138 3264 5874 298 4204
is_linear=0
shrinkage=0.05


Tree=2
num_leaves=16
num_cat=0
split_feature=6 17 13 13 6 18 6 15 1 18 22 6 13 1 13
split_gain=8300.64 21966.4 2499.59 2384.01 2105.2 2153.65 1492.52 3773 1887.59 1527.19 1381.06 3278.31 2735.39 3039.87 2088.21
threshold=36.587268993839842 113.99474375821289 86.941524310118282 155.14126149802891 21.430527036276526 0.40562000000000004 4.0369609856262842 2.5000000000000004 4.5000000000000009 0.8344950000000001 1.0000000180025095e-35 0.88295687885010277 28.400131406044682 1.0000000180025095e-35 20.548620236530883
decision_type=2 8 8 10 2 10 2 2 2 10 2 2 10 2 10
left_child=2 -2 6 4 5 -4 7 9 -9 10 11 -1 13 14 -13
right_child=1 -3 3 -5 -6 -7 -8 8 -10 -11 -12 12 -14 -15 -16
leaf_value=0.57187669801798025 0.23216659174469756 -0.014535210279367364 0.18303085176155198 0.61221615194571521 0.28141719827352962 0.30903067497929498 0.24480780708407704 -2.5528069883500168e-06 0.3060949658146272 0.11033884606548422 0.29014696649217603 0.38397885070748838 0.16239335873410332 0.19525036991263833 0.74987426353129372
leaf_weight=163.39122413471341 3632.0664135850966 1200.4831419438124 3950.1720687169582 36.641411833465099 817.36190251260996 371.31537825614214 19803.931125540286 160.28557367064059 73.319958098232746 93.69547201320529 1426.2830530740321 86.326501734554768 184.34663292020559 97.475180458277464 71.844453439116478
leaf_count=1281 7863 45839 40137 290 8254 1914 66473 1967 203 884 8744 1046 2376 803 321
internal_value=0.231301 0.170882 0.241981 0.210673 0.207797 0.193865 0.249291 0.286945 0.0961384 0.307929 0.317042 0.380551 0.309377 0.415243 0.550576
internal_weight=32168.9 4832.55 27336.4 5175.49 5138.85 4321.49 22160.9 2356.97 233.606 2123.36 2029.67 603.384 439.993 255.646 158.171
internal_count=188395 53702 134693 50595 50305 42051 84098 17625 2170 15455 14571 5827 4546 2170 1367
is_linear=0
shrinkage=0.05


Tree=3
num_leaves=16
num_cat=0
split_feature=17 6 13 13 5 21 21 3 13 6 13 6 6 2 13
split_gain=6373.41 14102.2 2588.48 1861.8 1468.31 1464.53 1209.2 1205.95 1264.49 2522.48 1430.61 1090.86 4636.47 1969.61 1812.08
threshold=inf 36.3832991101985 56.915243101182661 155.14126149802891 1.0000000180025095e-35 15.029566360052565 30.502628120893565 0.41666666666666669 89.733902759526941 1.0472279260780291 82.276609724047304 6.8323066392881602 9.1211498973305982 1.0000000180025095e-35 116.7706964520368
decision_type=8 2 8 10 2 8 8 2 8 2 10 2 2 2 8
left_child=-1 2 4 7 6 -3 -2 -4 9 10 -9 14 13 -13 -10
right_child=1 5 3 -5 -6 -7 -8 8 11 -11 -12 12 -14 -15 -16
leaf_value=0.19440179903997032 -0.055789858229858186 0.42906426791686236 0.22330827499710726 0.44788432700883707 0.046531973750320768 -0.021434158891474903 0.22423223478291945 0.41341804927126469 0.18641001383871122 0.024712181396235884 -0.052896510153706222 0.46681330001267263 0.12384215196621784 -0.05474350285621065 0.038866414086291518
leaf_weight=31490.579952197149 39.115119073539972 18.219064638018608 341.7102288454771 48.514705717563629 128.93400908634067 1184.1759483925998 2405.0708426199853 71.26117130741477 379.86285314336419 568.80643443204463 21.322931230068207 162.49282301217318 651.32289311662316 20.328118801116943 460.47491069510579
leaf_count=81276 446 20 1881 164 1078 46418 17802 535 5634 10673 384 2034 11030 243 8777
internal_value=0.185096 0.140018 0.175094 0.141127 0.211071 -0.0145688 0.219747 0.135551 0.122702 0.0641396 0.306027 0.145825 0.186343 0.408795 0.105582
internal_weight=37992.2 6501.61 5299.22 2726.1 2573.12 1202.4 2444.19 2677.58 2335.87 661.391 92.5841 1674.48 834.144 182.821 840.338
internal_count=188395 107119 60681 41355 19326 46438 18248 41191 39310 11592 919 27718 13307 2277 14411
is_linear=0
shrinkage=0.05


Tree=4
num_leaves=16
num_cat=0
split_feature=17 6 13 13 1 8 0 0 6 13 6 16 20 15 21
split_gain=4937.4 9825.78 1683.15 1492.04 1948.89 1902.23 1397.52 1358.47 1555.48 1181.37 1203.91 1014.9 1608.09 1583.5 978.918
threshold=inf 36.3832991101985 31.291064388961896 22.651116951379766 1.0000000180025095e-35 1.0000000180025095e-35 2.5000000000000004 1.5000000000000002 17.498973305954831 91.442181340341662 2.8076659822039702 1.5000000000000002 2.5000000000000004 22.500000000000004 15.029566360052565
decision_type=8 2 8 10 2 2 2 2 2 8 2 2 2 2 8
left_child=11 2 3 7 5 -5 9 8 -2 10 -4 -1 13 -13 -3
right_child=1 14 6 4 -6 -7 -8 -9 -10 -11 -12 12 -14 -15 -16
leaf_value=0.16405613175690179 0.13575704952373069 0.29486030560492432 0.1512696755457322 0.41435856675843663 0.13330589027362583 -0.053682650184225439 0.19069992340989589 0.18342359052787161 -0.053185866032436614 0.12808155313383299 0.024612757412354743 -0.0065529764327917394 0.18973102356336868 0.20721005308549018 -0.020789845202856552
leaf_weight=34803.123936101794 582.89270834997296 24.99242439866066 259.17674537375569 194.04462805390358 162.67899163067341 24.396673366427422 580.55544862523675 1589.1642052493989 133.85853415355086 1917.3206339925528 679.53264785371721 348.45633649639785 340.21484038233757 115.1813068985939 1160.4484028890729
leaf_count=77634 5780 20 2814 847 849 395 2361 6086 2918 26937 11694 3186 237 219 46418
internal_value=0.155088 0.11765 0.143156 0.17281 0.264492 0.362062 0.119965 0.157644 0.100461 0.105578 0.0596003 0.162773 0.107185 0.0465745 -0.0141065
internal_weight=42916 7309.06 6123.62 2687.04 381.12 218.441 3436.59 2305.92 716.751 2856.03 938.709 35607 803.852 463.638 1185.44
internal_count=188395 107119 60681 16875 2091 1242 43806 14784 8698 41445 14508 81276 3642 3405 46438
is_linear=0
shrinkage=0.05


Tree=5
num_leaves=16
num_cat=0
split_feature=17 6 13 1 13 17 20 6 6 6 1 6 9 6 4
split_gain=4716.15 6710.78 2045.78 1118.9 999.717 1903.26 1403.99 1437.48 812.912 1855.59 1846.93 989.281 855.742 749.085 1435.22
threshold=111.41590013140605 35.377138945927449 56.915243101182661 5.5000000000000009 87.434296977660992 104.97700394218136 1.0000000180025095e-35 56.943189596167016 28.767967145790561 25.756331279945247 1.0000000180025095e-35 22.093086926762492 1.5000000000000002 34.668035592060242 1.0000000180025095e-35
decision_type=8 2 8 2 8 10 2 2 2 2 2 2 2 2 2
left_child=4 2 8 -3 -1 6 7 -6 9 11 -11 -2 -13 -4 -15
right_child=1 3 13 -5 5 -7 -8 -9 -10 10 -12 12 -14 14 -16
leaf_value=0.14356226853935564 0.1470472347151148 -0.01837606855926301 0.08731025621933261 0.20759222563375646 0.094603573936057686 0.37716180459358983 0.15190457819597455 0.28364238896519667 -0.056848790918179619 0.57578133653686281 0.17182197272027488 -0.025565061621617414 0.24513764421098605 -0.052580822262870301 0.7997502181287901
leaf_weight=33019.662339784205 3134.1942382082343 1199.5652173534036 3219.4545538052917 57.301243424415588 3644.1354330778122 71.574631161987782 1979.0289777293801 103.37599577009678 49.376645289361477 49.283948242664337 66.675090312957764 147.99412546679378 36.258315533399582 9.3478547297418118 10.320148017257452
leaf_count=59099 15867 47470 40190 82 19316 142 2457 102 690 135 150 2618 37 193 28
internal_value=0.133001 0.0979877 0.117813 -0.00805437 0.140198 0.121036 0.117828 0.099827 0.144412 0.147309 0.343901 0.140428 0.0277824 0.0891995 0.396183
internal_weight=46797.5 7979.77 6722.9 1256.87 38817.8 5798.12 5726.54 3747.51 3483.78 3434.41 115.959 3318.45 184.252 3239.12 19.668
internal_count=188576 107460 59908 47552 81116 22017 21875 19418 19497 18807 285 18522 2655 40411 221
is_linear=0
shrinkage=0.05


Tree=6
num_leaves=16
num_cat=0
split_feature=1 6 15 13 10 4 6 0 13 0 6 13 15 20 6
split_gain=3034.98 3112.34 3727.85 1496.91 1646.82 1456.25 1409.67 1146.91 944.772 1078.07 842.521 1143.22 1157.84 992.244 824.536
threshold=1.0000000180025095e-35 28.767967145790561 2.5000000000000004 86.251642575558478 1.0000000180025095e-35 1.0000000180025095e-35 25.263518138261471 1.5000000000000002 27.578843626806833 1.0000000180025095e-35 1.129363449691992 12.500000000000002 22.500000000000004 1.0000000180025095e-35 6.2847364818617395
decision_type=2 2 2 8 2 2 2 2 10 2 2 8 2 2 2
left_child=1 3 7 4 8 -4 -6 -3 -1 -10 11 -2 13 -13 -5
right_child=10 2 5 14 6 -7 -8 -9 9 -11 -12 12 -14 -15 -16
leaf_value=0.17572328895031039 0.15136512348608269 -0.00099754243636775999 0.19729345385881117 0.06082245225867542 0.064750279761891141 -0.059667571515277754 0.28458387942514979 0.10556607226170323 0.21181722704111772 0.10814641777647607 0.12488389093118633 -0.032529366603248885 0.34097256386788732 0.13281834793252972 0.10572724593853147
leaf_weight=1468.8057637065649 294.8004600033164 1711.5027765110135 449.67345470935106 1787.5632236152887 1177.5653128325939 62.76175232976675 77.670188013464212 296.07118824124336 293.13147826492786 1743.8394148424268 38098.23457486555 358.18004506081343 27.749825716018677 121.39652325958014 2391.8814857639372
leaf_count=5649 1040 51408 611 17714 8453 540 166 2157 857 12885 65989 3190 22 166 17729
internal_value=0.117153 0.0945348 0.0454503 0.108369 0.127542 0.165806 0.0783785 0.0147201 0.14514 0.123077 0.123816 0.0730729 0.0275476 0.00933409 0.0865244
internal_weight=50360.8 11460.5 2520.01 8940.46 4761.01 512.435 1255.24 2007.57 3505.78 2036.97 38900.4 802.127 507.326 479.577 4179.44
internal_count=188576 118169 54716 63453 28010 1151 8619 53565 19391 13742 70407 4418 3378 3356 35443
is_linear=0
shrinkage=0.05


Tree=7
num_leaves=16
num_cat=0
split_feature=17 6 13 0 22 6 18 6 18 18 13 6 6 6 13
split_gain=3762.94 4117.73 1223.96 877.988 982.714 757.661 1091.19 777.076 662.675 602.327 754.408 743.223 662.37 656.342 608.067
threshold=111.41590013140605 35.377138945927449 56.915243101182661 1.5000000000000002 1.0000000180025095e-35 13.942505133470227 0.13970500000000005 1.9452429842573582 31.117810000000002 1.22272 108.16360052562418 1.6960985626283369 2.4572210814510616 6.8323066392881602 110.69316688567675
decision_type=8 2 8 2 2 2 8 2 10 8 8 2 2 2 8
left_child=5 2 -2 -3 -5 6 7 -1 9 11 -11 -8 14 -12 -13
right_child=1 3 -4 4 -6 -7 8 -9 -10 10 13 12 -14 -15 -16
leaf_value=0.12357556598610873 0.10746215296320889 -0.024844976885640104 0.068172761459319692 0.45213709201146196 0.056618076998972415 0.11625741179937506 0.024578296971902062 0.0070147590236794045 -0.066141318067833299 0.10677285434423872 0.094360165351664291 0.12826326290041642 0.131089340386568 0.034517626380456204 0.34540456669906494
leaf_weight=202.36150150001049 4194.9501021355391 1090.06942775473 3761.7288364097476 17.46783684566617 149.10743926092982 25839.459229543805 153.86119519919157 487.15651943907142 56.038640886545181 13423.297568686306 1361.1740009225905 59.037259496748447 1891.1622336432338 691.38911065459251 71.675486385822296
leaf_count=659 19497 46099 40411 208 1245 36001 904 2414 338 28789 5912 242 2832 2917 108
internal_value=0.104678 0.0756048 0.0888888 -0.00850159 0.0983704 0.110733 0.102973 0.0412435 0.105376 0.105921 0.102455 0.130571 0.138632 0.0742078 0.247543
internal_weight=53449.9 9213.32 7956.68 1256.64 166.575 44236.6 18397.2 689.518 17707.6 17651.6 15475.9 2175.74 2021.87 2052.56 130.713
internal_count=188576 107460 59908 47552 1453 81116 45115 3073 42042 41704 37618 4086 3182 8829 350
is_linear=0
shrinkage=0.05


Tree=8
num_leaves=16
num_cat=0
split_feature=17 13 13 21 17 13 5 5 16 20 0 18 18 15 13
split_gain=3306.2 1867.26 712.705 1006.26 1211.08 698.5 670.02 551.773 534.536 1280.05 798.029 510.947 582.966 602.276 768.637
threshold=111.41590013140605 56.915243101182661 87.434296977660992 96.994086727989497 103.00591327201052 155.14126149802891 1.0000000180025095e-35 1.0000000180025095e-35 1.5000000000000002 2.5000000000000004 5.5000000000000009 0.16024500000000003 0.16218500000000002 1.5000000000000002 100.80486202365309
decision_type=8 8 8 8 10 10 2 2 2 2 2 8 8 2 10
left_child=2 7 8 -4 11 6 -3 -2 -1 10 -10 -5 -13 14 -14
right_child=1 5 3 4 -6 -7 -8 -9 9 -11 -12 12 13 -15 -16
leaf_value=0.10365123848775196 0.093746683478409226 0.039760943211736191 0.11227148233167863 -0.014090332842494524 0.22645747106337977 0.19477743769278538 0.12573809610293749 0.0073782215007599924 -0.052390801485768496 0.1237880623992581 0.083028237539963037 0.28238421374796779 0.034033614834075958 0.098466888168672315 0.084438787639044527
leaf_weight=38519.827029533684 4597.9133348874748 4597.8455968704075 2327.2173874527216 182.75981795042753 123.47691793739796 77.985202692449093 238.34221512079239 192.82163726910949 258.77113055437803 453.53152696788311 187.54965960979462 32.367029123008251 1623.8674057275057 1276.0328995771706 1416.7810466215014
leaf_count=56458 26009 79093 2441 1272 191 158 1067 1133 2027 216 398 28 7994 4508 5583
internal_value=0.0946007 0.0680578 0.100152 0.08542 0.0719935 0.0463994 0.0440017 0.0902717 0.102761 0.0646389 0.00450865 0.0677789 0.0712207 0.0696297 0.0575234
internal_weight=56107.1 9704.91 46402.2 6982.5 4655.29 4914.17 4836.19 4790.73 39419.7 899.852 446.321 4531.81 4349.05 4316.68 3040.65
internal_count=188576 107460 81116 22017 19576 80318 80160 27142 59099 2641 2425 19385 18113 18085 13577
is_linear=0
shrinkage=0.05


Tree=9
num_leaves=16
num_cat=0
split_feature=17 0 20 16 15 0 18 17 21 21 17 15 18 21 22
split_gain=2978.64 1497.68 609.294 1586.34 1116.21 562.048 630.93 623.316 754.107 657.336 600.598 577.508 555.468 566.009 550.434
threshold=111.41590013140605 1.5000000000000002 2.5000000000000004 1.5000000000000002 22.500000000000004 6.5000000000000009 0.13970500000000005 75.525624178712235 33.065045992115643 28.005913272010513 100.98554533508543 2.5000000000000004 0.18466000000000002 73.012483574244428 1.0000000180025095e-35
decision_type=8 2 2 2 2 2 8 10 10 8 10 2 8 10 2
left_child=2 -2 3 5 -5 6 11 12 9 -9 14 -1 -8 -14 -11
right_child=1 -3 -4 4 -6 -7 7 8 -10 10 -12 -13 13 -15 -16
leaf_value=0.062328261104495908 0.046139934416301105 0.085407261461767733 0.11220830014090276 -0.034698730228781186 0.12019605749473977 0.098041336181264552 0.14026990561564576 -0.072118373719992565 -0.070699658139785099 -0.0082210029972775555 0.13947834057284755 -0.049642997656676201 0.086842517666915045 0.12226002134993469 0.077932667138733494
leaf_weight=635.09710419923067 6145.418266935274 4016.1943193692714 3296.985763207078 422.23470491170883 160.40668638050556 17313.200676783919 531.63440882414579 80.617065742611885 108.3608785867691 245.44499099999666 281.71248266845942 140.5259490609169 23063.988732106984 1187.4279353767633 756.17125979065895
leaf_count=1861 92979 14481 2184 3151 208 18282 457 389 536 1416 533 904 48271 713 2211
internal_value=0.0862659 0.0616608 0.0914504 0.0899267 0.00795 0.0910037 0.0864956 0.0878088 0.0561849 0.0662736 0.074976 0.0420313 0.089687 0.0885774 0.0568171
internal_weight=58385.4 10161.6 48223.8 44926.8 582.641 44344.2 27031 26255.4 1472.31 1363.95 1283.33 775.623 24783.1 24251.4 1001.62
internal_count=188576 107460 81116 78932 3359 75573 57291 54526 5085 4549 4160 2765 49441 48984 3627
is_linear=0
shrinkage=0.05


Tree=10
num_leaves=16
num_cat=0
split_feature=17 6 3 1 6 23 4 17 18 6 6 1 11 12 6
split_gain=2518.38 3635.39 768.934 723.07 606.388 889.83 623.846 702.302 699.901 599.155 554.745 1125.72 537.172 713.164 1399.25
threshold=1.0000000180025095e-35 36.3832991101985 0.41666666666666669 13.500000000000002 14.158795345653663 1.0000000180025095e-35 1.0000000180025095e-35 70.417214191852835 0.11353500000000001 1.9452429842573582 20.269678302532515 1.0000000180025095e-35 2.5000000000000004 1.5000000000000002 4.2532511978097203
decision_type=10 2 2 2 2 2 2 10 8 2 2 2 2 2 2
left_child=1 2 3 -1 5 6 8 -8 9 -2 12 -12 13 -4 -15
right_child=4 -3 10 -5 -6 -7 7 -9 -10 -11 11 -13 -14 14 -16
leaf_value=0.094955180348105628 0.088355151558406439 -0.021032999778934393 0.062265898455556627 -0.061425920811827996 0.089839984972089046 0.10252900226712486 0.095506702001829952 -0.063810245559818332 0.071899093975748299 -0.021590251554211657 -0.010587444599039555 0.10801415244060016 -0.057463763907938947 0.23000634335069436 0.050821986311695912
leaf_weight=2765.9656709544361 185.19834608957171 1271.3959197103977 5049.4995442554355 75.844269461929798 28667.802780751139 3328.2587178349495 3702.7379295229912 70.387567639350891 13953.808499787003 373.87161033600569 676.08238251134753 284.02463617548347 87.090489324182272 192.0710888132453 251.98199467733502
leaf_count=6321 541 46731 38419 520 35357 2921 6906 458 33048 1843 12292 773 831 444 1137
internal_value=0.0803908 0.0583059 0.0690574 0.0907778 0.0850701 0.0787429 0.0744128 0.0925317 0.0697012 0.0148308 0.0596184 0.0245004 0.0656587 0.0676125 0.128372
internal_weight=60936 10654 9382.56 2841.81 50282.1 21614.3 18286 3773.13 14512.9 559.07 6540.75 960.107 5580.64 5493.55 444.053
internal_count=188542 107468 60737 6841 81074 45717 42796 7364 35432 2384 53896 13065 40831 40000 1581
is_linear=0
shrinkage=0.05


Tree=11
num_leaves=16
num_cat=0
split_feature=1 15 19 13 13 0 0 8 13 13 22 4 13 0 16
split_gain=2142.33 957.992 761.718 753.716 2423.06 969.701 775.061 786.226 635.52 612.605 925.678 1058.1 687.091 649.729 632.472
threshold=1.0000000180025095e-35 1.5000000000000002 0.047586859065232238 13.452693823915903 30.30551905387648 1.0000000180025095e-35 1.5000000000000002 1.0000000180025095e-35 2.2831800262812094 101.79040735873851 1.0000000180025095e-35 1.0000000180025095e-35 109.21484888304862 4.5000000000000009 1.0000000180025095e-35
decision_type=2 2 8 10 10 2 2 2 8 10 2 2 10 2 2
left_child=1 2 -1 6 -5 -6 -4 -8 -2 13 11 14 -12 -7 -11
right_child=8 -3 3 4 5 9 7 -9 -10 10 12 -13 -14 -15 -16
leaf_value=0.10854295107421011 0.090037545837848967 0.083408038226292391 0.017218667965003289 0.10603799485389734 0.11457622494342995 0.018524567875140448 0.10673785977893012 -0.021714077079594513 0.076246655116653017 -0.0013145293263324797 0.037409961406672437 0.10247916405881892 0.13310640766467749 0.14570708080811812 0.2301037961809331
leaf_weight=554.7924338914454 10798.688777737319 2893.5216269865632 2758.6919819395989 1912.2322138529271 421.38404978998005 3261.6952736973763 516.57072160020471 154.70429818332195 37042.889276020229 1004.6465227752924 293.22831500694156 385.98590627685189 521.78694389015436 103.52713502943516 30.317540630698204
leaf_count=1282 10803 7078 31967 7300 1576 42317 1615 991 59373 16237 3040 2385 2396 154 28
internal_value=0.0742147 0.0575969 0.0513301 0.0485358 0.0570024 0.0414307 0.0289468 0.0771281 0.0793598 0.0359251 0.0562122 0.0318386 0.0986914 0.0224429 0.00548123
internal_weight=62654.7 14813.1 11919.6 11364.8 7934.8 6022.57 3429.97 671.275 47841.6 5601.19 2235.97 1420.95 815.015 3365.22 1034.96
internal_count=188542 118366 111288 110006 75433 68133 34573 2606 70176 66557 24086 18650 5436 42471 16265
is_linear=0
shrinkage=0.05


Tree=12
num_leaves=16
num_cat=0
split_feature=17 6 6 23 21 4 18 17 6 17 21 6 12 6 22
split_gain=2240.16 2808.17 608.611 806.514 597.283 502.94 596.136 583.168 498.038 464.581 464.189 446.649 1514.56 836.809 699.583
threshold=1.0000000180025095e-35 36.3832991101985 14.158795345653663 1.0000000180025095e-35 29.977003942181344 1.0000000180025095e-35 0.11353500000000001 70.417214191852835 1.9452429842573582 103.00591327201052 55.995400788436271 7.1088295687885017 1.5000000000000002 3.1635865845311435 1.0000000180025095e-35
decision_type=10 2 2 2 8 2 8 10 2 10 10 2 2 2 2
left_child=1 4 3 5 -1 6 8 -7 -2 -10 11 12 13 -6 -14
right_child=2 -3 -4 -5 10 7 -8 -9 9 -11 -12 -13 14 -15 -16
leaf_value=-0.062668194150878598 0.073210179651869753 -0.021217009199892417 0.077860388487418219 0.0891752850067003 0.054883695832816951 0.081339299178818408 0.060861979844093798 -0.063882100439630288 -0.039193730245015816 0.17424426887463793 -0.064809516863493441 0.068212717417554192 0.23723517444234782 0.0043808420070940357 0.095733527972650459
leaf_weight=102.2018141373992 200.6883392855525 1274.4128418322653 29907.369135431945 3480.9226446151733 2028.1068423837423 3940.820580303669 14744.308616012335 70.257028631865978 356.92426880076528 27.351164355874062 75.325053129345179 6044.1766396164894 111.73369190096855 1377.5812088623643 401.86296194791794
leaf_count=753 541 46731 35357 2921 14231 6906 33048 458 1835 8 535 32107 129 11785 1197
internal_value=0.0688183 0.0487341 0.0731662 0.067014 0.0575254 0.0630247 0.058898 0.0787929 0.00938333 -0.0239477 0.0587502 0.0596855 0.0465323 0.0344578 0.126567
internal_weight=64144 11415.4 52728.6 22821.3 10141 19340.3 15329.3 4011.08 584.964 384.275 10038.8 9963.46 3919.28 3405.69 513.597
internal_count=188542 107468 81074 45717 60737 42796 35432 7364 2384 1843 59984 59449 27342 26016 1326
is_linear=0
shrinkage=0.05


Tree=13
num_leaves=16
num_cat=0
split_feature=1 6 15 0 13 13 13 21 6 22 6 12 6 22 20
split_gain=2024.62 1334.68 2157.58 856.248 854.512 728.77 919.15 705.901 866.663 846.783 701.287 662.538 607.243 1907.72 1255.28
threshold=1.0000000180025095e-35 36.3832991101985 1.5000000000000002 1.0000000180025095e-35 8.9520367936925123 12.762812089356112 28.400131406044682 32.013797634691201 14.550308008213554 1.0000000180025095e-35 13.542778918548942 1.5000000000000002 48.642026009582487 1.0000000180025095e-35 1.0000000180025095e-35
decision_type=2 2 2 2 10 10 10 10 2 2 2 2 2 2 2
left_child=1 5 3 -3 12 7 -7 8 9 11 -2 -1 -5 14 -14
right_child=10 2 -4 4 -6 6 -8 -9 -10 -11 -12 -13 13 -15 -16
leaf_value=0.020738438895059556 0.061744097035499448 0.21416898583119354 0.090761698126175197 -0.01797214762021572 -0.04417620926525212 0.090147233978913194 0.053474747744613541 0.082435001345824682 0.068048532591271346 -0.047932080608030725 0.073882245619281472 0.18606835572747432 0.42576424182246986 -0.031811715858860605 0.092066213598818225
leaf_weight=1824.2223899886012 19815.604586970061 39.905257187783718 671.42931513488293 297.90266150422394 1167.4313549697399 2256.2275065071881 7051.5011689253151 700.42536383494735 930.72793754190207 483.32097516208887 29836.565274260938 62.591405875980854 50.497947830706835 148.72445133328438 63.887522328644991
leaf_count=12666 38581 50 1092 9297 35687 5771 40448 836 5223 3453 31595 104 470 3189 80
internal_value=0.0640834 0.0484611 0.0144613 -0.0145101 -0.0198047 0.0546934 0.0623657 0.0368438 0.0271659 0.0111074 0.0690383 0.0262352 0.0309007 0.0862411 0.239671
internal_weight=65401 15748.8 2439.78 1768.35 1728.44 13309 9307.73 4001.29 3300.86 2370.13 49652.2 1886.81 561.013 263.11 114.385
internal_count=188542 118366 49865 48773 48723 68501 46219 22282 21446 16223 70176 12770 13036 3739 550
is_linear=0
shrinkage=0.05


Tree=14
num_leaves=16
num_cat=0
split_feature=17 6 0 0 1 20 16 13 6 13 6 10 0 17 22
split_gain=2070 2053.35 661.172 566.318 563.892 535.802 1046.75 681.648 577.967 534.138 2725.87 4649.32 693.439 485.76 622.952
threshold=1.0000000180025095e-35 36.3832991101985 6.5000000000000009 2.5000000000000004 13.500000000000002 2.5000000000000004 1.5000000000000002 4.5170827858081486 6.1533196440793985 2.2831800262812094 56.421629021218351 1.0000000180025095e-35 1.5000000000000002 75.525624178712235 1.0000000180025095e-35
decision_type=10 2 2 2 2 2 2 10 2 10 2 2 2 10 2
left_child=1 3 5 -1 -5 6 13 8 -8 10 12 -12 -3 -2 -15
right_child=2 9 -4 4 -6 -7 7 -9 -10 -11 11 -13 -14 14 -16
leaf_value=0.040636044837044645 0.06082474055251394 -0.051198748865941571 0.070996746212572556 0.069000924462629107 -0.063203061027185661 0.085004157480856601 0.14105362911990824 -0.050929769288765449 -0.062568603299049577 -0.038370727190240074 1.1043772033784889 -0.05259864642285738 0.18988942641416276 -0.023974051105437599 0.048908521633040589
leaf_weight=7613.0474324896932 29113.848324082792 217.29894214123487 20974.571822404861 3151.0093081183732 82.66308669000864 1965.0666637867689 105.58581117540598 356.62779936566949 51.883491463959217 940.30264228396118 15.272374134510754 19.917355835437775 34.465342300012708 367.38832797110081 1448.9831603914499
leaf_count=53896 51952 9256 19622 6321 520 1191 125 2448 378 36639 95 641 100 1901 3457
internal_value=0.0598787 0.0411489 0.0640368 0.0480848 0.065618 0.059667 0.0580832 -0.0126668 0.0739347 -0.0201465 0.0395467 0.451095 -0.0181128 0.0592594 0.0341637
internal_weight=66457.9 12074 54384 10846.7 3233.67 33409.4 31444.3 514.097 157.469 1227.26 286.954 35.1897 251.764 30930.2 1816.37
internal_count=188542 107468 81074 60737 6841 61452 60261 2951 503 46731 10092 736 9356 57310 5358
is_linear=0
shrinkage=0.05


Tree=15
num_leaves=16
num_cat=0
split_feature=0 6 15 13 13 6 21 6 0 10 6 13 7 0 18
split_gain=2104.39 966.877 725.179 890.45 635.847 579.38 652.639 569.932 883.495 865.674 486.297 708.057 462.077 544.458 925.047
threshold=2.5000000000000004 36.3832991101985 1.5000000000000002 7.9664914586070958 10.92312746386334 16.55989048596852 19.990144546649152 56.726899383983586 1.5000000000000002 1.0000000180025095e-35 3.1635865845311435 9.1162943495400803 1.0000000180025095e-35 1.5000000000000002 0.16024500000000003
decision_type=2 2 2 10 10 2 10 2 2 2 2 8 2 2 10
left_child=1 4 3 7 5 6 12 8 -3 -9 11 -2 13 14 -1
right_child=10 2 -4 -5 -6 -7 -8 9 -10 -11 -12 -13 -14 -15 -16
leaf_value=0.0020241303191195952 0.068210768689637616 -0.022833008490921968 0.06171684028905175 -0.025046511383138067 0.052770888177681101 0.063101867279429111 0.063975734846986806 0.20313532638252743 0.13617977997147093 0.0017632111028796161 0.063883899148077489 -0.016843675996035049 -0.036115993716735073 0.053073290875407624 0.079075530911960387
leaf_weight=2648.1169464364648 520.33378238230944 364.21842968463898 643.73387487977743 1234.6591502688825 18654.314923167229 1478.973927076906 1029.3550535663962 119.34262262284756 114.795390419662 96.573336135596037 37267.029954927042 461.61968764290214 340.20909814164042 1195.6095819734037 456.64533796161413
leaf_count=17062 1011 10561 1212 35884 64056 5406 1360 122 126 2013 41933 1887 1847 2751 1276
internal_value=0.0553143 0.0449965 0.0157671 0.000432715 0.0479113 0.0352293 0.0279571 0.0457051 0.0152843 0.113133 0.0629686 0.0282236 0.0199653 0.0244038 0.0133606
internal_weight=66625.5 28376.5 2573.32 1929.59 25803.2 7148.91 5669.94 694.93 479.014 215.916 38249 981.953 4640.58 4300.37 3104.76
internal_count=188507 143676 49918 48706 93758 29702 24296 12822 10687 2135 44831 2898 22936 21089 18338
is_linear=0
shrinkage=0.05


Tree=16
num_leaves=16
num_cat=0
split_feature=17 6 0 21 1 6 18 6 9 6 0 6 18 17 17
split_gain=2012.59 1106.7 771.977 743.404 668.121 654.356 643.339 499.487 600.702 439.444 437.215 391 470.183 461.828 441.941
threshold=111.41590013140605 30.585900068446275 6.5000000000000009 40.02956636005257 1.5000000000000002 2.3723477070499661 0.13035500000000003 1.0472279260780291 1.0000000180025095e-35 25.756331279945247 1.0000000180025095e-35 2.9828884325804248 2.1505900000000007 70.417214191852835 59.444809461235224
decision_type=8 2 2 8 2 2 8 2 2 2 2 2 10 10 10
left_child=2 4 6 -3 7 -6 -1 -2 10 -10 -9 12 13 14 -8
right_child=1 3 -4 -5 5 -7 11 8 9 -11 -12 -13 -14 -15 -16
leaf_value=0.01067719370836584 0.065872396396901289 0.11446986448006158 0.063595426340649269 -0.014976485483128417 -0.041114491366052837 0.061571487247427586 0.038777074659337697 -0.05751815937845163 -0.055554795601567397 0.13921942820589067 0.031698825476263362 0.054535169844182899 -0.067041395220377373 -0.033833091559973959 0.10008867401127162
leaf_weight=942.88927608728409 893.74409689754248 119.90966251119971 21169.541352070868 1462.7488438338041 162.22335145622492 3495.2902862653136 3075.4699456319213 140.44205917418003 317.3797568269074 31.757878467440605 5943.767185959965 28955.360349174589 104.83802369236946 198.27345588803291 325.07807436585426
leaf_count=3320 4925 182 19565 50086 779 6551 9424 1348 2378 40 41334 46398 595 1018 564
internal_value=0.0519746 0.0339275 0.0561153 -0.00515925 0.0395595 0.0570146 0.0514025 0.030845 0.0259771 -0.0377888 0.0296377 0.052578 0.0372747 0.0403167 0.0446424
internal_weight=67338.7 12567.3 54771.5 1582.66 10984.6 3657.51 33601.9 7327.09 6433.35 349.138 6084.21 32659 3703.66 3598.82 3400.55
internal_count=188507 107623 80884 50268 57355 7330 61319 50025 45100 2418 42682 57999 11601 11006 9988
is_linear=0
shrinkage=0.05


Tree=17
num_leaves=16
num_cat=0
split_feature=0 17 13 13 13 1 13 13 17 19 4 0 5 1 17
split_gain=1901.28 1276.23 631.609 797.349 556.662 512.913 772.19 521.087 510.225 497.046 439.476 432.987 427.094 413.071 386.144
threshold=2.5000000000000004 78.531537450722752 31.291064388961896 91.442181340341662 10.33180026281209 1.5000000000000002 20.548620236530883 14.931011826544022 103.00591327201052 -0.017056004634818552 1.0000000180025095e-35 1.5000000000000002 1.0000000180025095e-35 1.0000000180025095e-35 64.471090670170838
decision_type=2 8 8 8 10 2 10 10 10 10 2 2 2 2 10
left_child=1 4 5 -4 9 6 -3 -7 12 10 -1 -8 -5 -14 -12
right_child=-2 2 3 8 -6 7 11 -9 -10 -11 14 -13 13 -15 -16
leaf_value=0.031219773847151702 0.056226432460688314 0.015136205086650398 -0.010196503823666984 0.019918953806884299 0.051916900546028558 0.091446658214310639 0.081380233145489436 -0.045532772493662707 0.10321628638623864 0.065324946270873777 -0.03015525893277789 -0.07031519889924262 -0.055974555523634929 0.11860922274828355 0.11888781670131086
leaf_weight=3347.2996947169304 38664.941876074299 2008.8631068784744 2038.6254697125405 4056.6254488248378 14263.256379213184 698.26104723662138 786.5513251144439 76.981733560562134 211.89791789650917 918.85784957557917 498.34575729072094 49.922265607863665 40.772996589541435 197.84882996976376 47.500769652426243
leaf_count=8826 44831 16666 29383 52196 28031 834 2270 329 279 1863 1973 272 430 222 102
internal_value=0.0489503 0.0393289 0.0250192 0.0157489 0.046955 0.0417771 0.0319489 0.077834 0.0274853 0.0322456 0.0244355 0.0723135 0.0237458 0.0887464 -0.0171566
internal_weight=67906.6 29241.6 10166.4 6545.77 19075.3 3620.58 2845.34 775.243 4507.15 4812 3893.15 836.474 4295.25 238.622 545.847
internal_count=188507 143676 102881 82510 40795 20371 19208 1163 53127 12764 10901 2542 52848 652 2075
is_linear=0
shrinkage=0.05


Tree=18
num_leaves=16
num_cat=0
split_feature=0 17 6 13 16 13 13 6 13 6 22 19 6 4 21
split_gain=1791.99 1141.19 855.08 490.964 515.464 470.309 538.422 513.406 689.248 468.767 537.743 461.183 555.567 573.424 558.394
threshold=2.5000000000000004 78.531537450722752 36.3832991101985 11.383048620236531 1.5000000000000002 31.291064388961896 76.429040735873869 32.819986310746074 104.81274638633379 13.542778918548942 1.0000000180025095e-35 -0.017056004634818552 18.301163586584533 1.0000000180025095e-35 25.96911957950066
decision_type=2 8 2 10 2 8 8 2 10 2 2 10 2 2 10
left_child=1 3 5 11 -5 -3 -7 -8 -9 10 -2 12 14 -14 -1
right_child=9 2 -4 4 -6 6 7 8 -10 -11 -12 -13 13 -15 -16
leaf_value=0.00038745114251278665 -0.036612939821311266 0.043010440020282301 -0.017344313813443424 0.050400643869637912 -0.0093788626737934203 -0.016652540563496184 0.022059541531009481 0.13040931058860625 -0.0592468101056874 0.057040129495652118 0.046584525300401809 0.061592009303544776 0.064491827237839153 -0.058351620404361849 0.052743734582636717
leaf_weight=2306.4481992349029 197.20361612737179 3484.1311234608293 1141.1044288631529 13856.419956192374 370.06798081472516 864.69455100595951 4510.6273803859949 228.93300762027502 60.471452172845602 26298.953123552725 12283.914450094104 976.6239118501544 1027.4829827621579 104.55418792366982 653.5452476888895
leaf_count=8581 759 13444 46439 25740 1856 7271 34560 359 808 26196 17876 1926 1454 461 777
internal_value=0.0461811 0.0369122 0.0234637 0.0440838 0.0488452 0.0285542 0.0196613 0.0262043 0.0907564 0.053252 0.0452693 0.0307179 0.0233468 0.0531375 0.0119504
internal_weight=68365.2 29585.1 10290 19295.1 14226.5 9148.86 5664.73 4800.03 289.404 38780.1 12481.1 5068.65 4092.03 1132.04 2959.99
internal_count=188507 143676 102881 40795 27596 56442 42998 35727 1167 44831 18635 13199 11273 1915 9358
is_linear=0
shrinkage=0.05


Tree=19
num_leaves=16
num_cat=0
split_feature=3 17 6 21 13 13 6 11 6 6 14 1 6 18 17
split_gain=1690.73 1029.23 756.88 502.46 531.433 559.465 907.792 550.04 532.252 582.29 530.048 528.012 592.327 454.059 579.229
threshold=0.41666666666666669 78.531537450722752 36.3832991101985 94.48094612352169 10.92312746386334 89.438239159001327 38.002737850787135 1.5000000000000002 18.301163586584533 6.8323066392881602 1.5000000000000002 1.0000000180025095e-35 2.0301163586584536 0.40562000000000004 44.530223390275957
decision_type=2 8 2 8 10 10 2 2 2 2 2 2 2 10 10
left_child=-1 3 -3 -2 8 6 7 10 9 13 -6 -7 -13 14 -5
right_child=1 2 -4 4 5 11 -8 -9 -10 -11 -12 12 -14 -15 -16
leaf_value=0.050532150392568691 0.054281725916506984 0.026705434093147684 -0.016748590754224333 -0.0090674834974181582 0.059632903130657222 0.0028564678239405734 -0.045411692305057656 -0.080521886859817704 0.052979415199138125 -0.022461481821882363 0.013330836654829217 -0.041049984167935587 0.052274510089716092 0.074834689303648214 0.065113488428652819
leaf_weight=38822.776995729655 5510.4037449061871 9287.2096175216138 1123.0785283986479 917.36324454843998 6082.5054963976145 1472.6819431558251 240.34276137501001 75.677791118621826 894.00616769492626 969.64547432214022 688.39903156831861 188.9571910277009 1685.9771197959781 373.44511342048645 368.84726842492819
leaf_count=44831 5476 56442 46439 4346 10499 5754 1131 349 1717 3695 2273 1025 2908 746 876
internal_value=0.0436506 0.0347088 0.0220169 0.0414951 0.0364464 0.0421161 0.050074 0.0534273 0.0196531 0.00831808 0.0549264 0.0252665 0.0428648 0.0263042 0.012205
internal_weight=68701.3 29878.5 10410.3 19468.3 13957.8 10434.5 7086.93 6846.58 3523.31 2629.3 6770.9 3347.62 1874.93 1659.66 1286.21
internal_count=188507 143676 102881 40795 35319 23939 14252 13121 11380 9663 12772 9687 3933 5968 5222
is_linear=0
shrinkage=0.05


Tree=20
num_leaves=16
num_cat=0
split_feature=17 20 0 21 16 18 21 7 23 21 11 0 17 0 23
split_gain=1273.61 755.534 634.345 616.265 544.091 594.73 561.552 599.762 514.704 500.273 409.779 378.59 312.822 307.871 299.394
threshold=75.525624178712235 1.5000000000000002 6.5000000000000009 28.005913272010513 1.5000000000000002 0.13256500000000002 29.484231274638635 1.5000000000000002 8.5000000000000018 56.980946123521683 4.5000000000000009 1.5000000000000002 103.00591327201052 7.5000000000000009 113.00000000000001
decision_type=8 2 2 8 2 10 10 2 2 10 2 2 10 2 2
left_child=1 4 3 -2 6 -6 7 8 -1 10 11 12 -5 -4 -3
right_child=2 14 13 9 5 -7 -8 -9 -10 -11 -12 -13 -14 -15 -16
leaf_value=0.039789100677649035 -0.059062296362881773 0.062019596018273337 0.080548862805500943 0.020317717879132308 -0.033699055011416505 0.063572513192066998 0.05627578428128719 0.063615856950792457 -0.036127096853687722 -0.073381431295730923 -0.073464018687927221 0.039176857493893637 0.084274174315835865 0.041745830436343528 0.0014799038845697953
leaf_weight=33769.975795634091 213.68414234742522 7090.576981112361 690.01261614263058 8359.9343490544707 463.9908230677247 237.48551597446203 7313.7680023610592 2738.3131245821714 224.61320394277573 124.15060099586844 99.843145966529846 4933.3100701142102 195.6344658434391 1979.2872331291437 210.45810879766941
leaf_count=56988 1049 5030 546 94350 2727 341 6195 1865 600 731 605 13289 349 3395 395
internal_value=0.0415133 0.0453592 0.0294509 0.0251702 0.0429253 -0.000756174 0.0436211 0.0411012 0.0392872 0.0264835 0.0273968 0.0281443 0.0217817 0.0517809 0.0602752
internal_weight=68645 52049.2 16595.9 13926.6 44748.1 701.476 44046.7 36732.9 33994.6 13712.9 13588.7 13488.9 8555.57 2669.3 7301.04
internal_count=188455 74141 114314 110373 68716 3068 65648 59453 57588 109324 108593 107988 94699 3941 5425
is_linear=0
shrinkage=0.05


Tree=21
num_leaves=16
num_cat=0
split_feature=17 20 13 21 1 6 6 13 6 13 6 6 16 13 17
split_gain=1208.58 701.641 627.968 734.734 546.094 858.918 540.96 465.846 1318.16 759.22 626.187 8720.05 445.142 556.514 353.786
threshold=64.963863337713533 1.5000000000000002 87.729960578186606 27.480289093298293 5.5000000000000009 35.377138945927449 56.943189596167016 94.497371879106439 56.726899383983586 100.44349540078845 43.629021218343603 42.706365503080086 1.5000000000000002 16.409329829172147 75.525624178712235
decision_type=8 2 8 10 2 2 2 8 2 8 2 2 2 10 8
left_child=1 2 12 6 5 -2 -4 -7 9 10 11 -9 -1 -14 -11
right_child=4 -3 3 -5 -6 7 -8 8 -10 14 -12 -13 13 -15 -16
leaf_value=0.044354470116565493 0.028456126729642567 0.057902862818217105 0.017018390481163537 0.061692079626791269 0.046132886466198619 -0.035087391913892332 0.10367821981136066 0.052994329756410767 0.24843246647955419 0.084878029810471489 -0.05284751592032854 2.2735011646292107 0.039079531590632231 -0.067505271429764674 -0.03889203928703381
leaf_weight=35097.530829101801 13869.590075857937 7148.2243533432484 5611.8495031073689 1277.4943942725658 3597.6020384803414 867.35650413110852 185.98558567464352 59.25644688308239 57.72457735799253 65.602114945650101 31.612358154729009 4.6788409352302542 313.9137415215373 200.66651543602347 475.30951201915741
leaf_count=44869 64678 5269 16901 980 5064 25511 81 1448 261 63 1277 5 870 1294 19884
internal_value=0.0393093 0.0434026 0.0409742 0.0273661 0.0285887 0.0244979 0.0198009 -0.0106554 0.0198649 -0.000893307 0.128956 0.218868 0.0436776 -0.00247977 -0.023859
internal_weight=68864.4 49835.7 42687.4 7075.33 19028.7 15431.1 5797.84 1561.54 694.184 636.459 95.5476 63.9353 35612.1 514.58 540.912
internal_count=188455 70264 64995 17962 118191 113127 16982 48449 22938 22677 2730 1453 47033 2164 19947
is_linear=0
shrinkage=0.05


Tree=22
num_leaves=16
num_cat=0
split_feature=1 17 13 20 17 23 13 7 17 7 0 13 13 9 7
split_gain=1195.24 611.111 503.532 513.349 481.717 471.808 440.204 404.568 395.388 395.434 395.367 602.314 488.19 396.124 334.266
threshold=1.0000000180025095e-35 49.490801576872542 2.2831800262812094 1.0000000180025095e-35 49.490801576872542 9.5000000000000018 155.14126149802891 1.5000000000000002 31.816688567674117 1.0000000180025095e-35 1.5000000000000002 119.43166885676742 21.599868593955325 1.0000000180025095e-35 1.0000000180025095e-35
decision_type=2 8 8 2 8 2 10 2 10 2 2 10 10 2 2
left_child=1 14 -2 7 -5 -6 10 8 -4 -10 13 12 -12 -3 -1
right_child=2 6 3 4 5 -7 -8 -9 9 -11 11 -13 -14 -15 -16
leaf_value=0.037683078294212698 0.050561905162374278 0.014029669364848459 0.029120431293341617 0.051165065539750913 0.028801397564936743 -0.094176322140783031 0.11286656977265214 0.063575510472719365 0.045362385758197378 0.0082313037715921935 0.054448930300037016 0.11947575888490831 -0.0046895996849552583 -0.046106219684442888 -0.027782879362056208
leaf_weight=8122.7927846647799 11118.069558225572 7690.7052162624896 17557.469851840287 10458.057836532593 1737.9496273472905 81.543623685836792 119.79021733999252 1165.5809468328953 8090.8377635404468 787.17755314707756 763.23843601346016 203.35856323689222 642.56902126967907 283.82355393283069 199.62395134568214
leaf_count=18498 10822 90324 33825 8948 2986 360 145 723 10951 1462 2266 529 3778 2109 729
internal_value=0.0372384 0.0261705 0.0411504 0.0385263 0.0470336 0.0232823 0.0176433 0.0347417 0.03347 0.0420708 0.0164513 0.0390597 0.0274158 0.0118882 0.0361119
internal_weight=69022.6 18025.9 50996.7 39878.6 12277.6 1819.49 9703.49 27601.1 26435.5 8878.02 9583.69 1609.17 1405.81 7974.53 8322.42
internal_count=188455 118378 70077 59255 12294 3346 99151 46961 46238 12413 99006 6573 6044 92433 19227
is_linear=0
shrinkage=0.05


Tree=23
num_leaves=16
num_cat=0
split_feature=0 17 6 21 21 18 6 6 22 6 0 6 6 15 6
split_gain=1148.81 817.111 751.399 673.632 545.899 440.886 334.817 797.549 589.866 1613.42 1027.26 787.759 327.831 552.153 400.814
threshold=4.5000000000000009 75.525624178712235 36.3832991101985 1.0000000180025095e-35 1.0000000180025095e-35 0.11353500000000001 42.706365503080086 43.629021218343603 1.0000000180025095e-35 48.642026009582487 1.5000000000000002 56.726899383983586 17.255304585900074 8.5000000000000018 28.171115674195757
decision_type=2 8 2 10 10 8 2 2 2 2 2 2 2 2 2
left_child=1 3 4 5 -3 -1 -4 -8 9 -9 11 -11 -7 14 -14
right_child=-2 2 6 -5 -6 12 7 8 -10 10 -12 -13 13 -15 -16
leaf_value=-0.01442898761991581 0.043184486999635618 0.025961863065515733 -0.05394808961995106 0.046714158230164754 -0.026026921086996963 0.026843335487939709 0.14011392995274546 -0.051941241170767774 -0.053165409022556842 -0.056141662703040655 0.51090353263909516 0.22752040635142184 0.055333264727025412 -0.060973697723208702 0.028045107859474689
leaf_weight=547.49163316935301 27797.676292859018 11448.21652694419 410.55902128852904 8406.5930514037609 528.05696911737323 13504.258721601218 91.829036829993129 198.54372825846076 442.7523240800947 40.392307201400399 19.502144150435925 61.790670892223716 3135.1294261366129 129.03312311321497 2359.9996458664536
leaf_count=2221 29727 59001 17530 8009 2354 30877 390 8887 18544 1188 61 209 3917 662 4878
internal_value=0.0353247 0.0300373 0.0197973 0.0348655 0.023669 0.0298027 -0.016842 0.000978116 -0.0157773 0.0359009 0.179192 0.115396 0.0310691 0.0412139 0.0436154
internal_weight=69121.8 41324.1 13241.6 28082.5 11976.3 19675.9 1265.37 854.81 762.981 320.229 121.685 102.183 19128.4 5624.16 5495.13
internal_count=188455 158728 108164 50564 61355 42555 46809 29279 28889 10345 1458 1397 40334 9457 8795
is_linear=0
shrinkage=0.05


Tree=24
num_leaves=16
num_cat=0
split_feature=1 6 15 6 9 6 13 18 6 6 13 5 13 13 6
split_gain=1099.02 605.09 515.207 842.228 592.423 710.554 564.15 603.452 603.708 1061.85 1302.06 583.846 514.564 493.205 658.055
threshold=1.0000000180025095e-35 13.750855578370981 1.5000000000000002 36.3832991101985 1.0000000180025095e-35 19.809719370294321 31.291064388961896 0.39006500000000005 5.5290896646132799 1.0472279260780291 61.695137976346921 1.0000000180025095e-35 15.949408672798951 94.497371879106439 56.726899383983586
decision_type=2 2 2 2 2 2 8 10 2 2 10 2 10 8 2
left_child=2 -2 3 4 6 -6 12 8 9 10 -8 -11 -1 -5 -15
right_child=1 -3 -4 13 5 -7 7 -9 -10 11 -12 -13 -14 14 -16
leaf_value=0.021268933455473343 0.031005277295000695 0.042038623579954505 0.040540534267949291 -0.039275554234980303 -0.051361721948030674 0.075199088539119635 -0.061457809639180495 0.072716509354903605 0.025935746717927827 -0.029417359544034339 0.080709357163675235 0.057466527738584218 0.059151283217249356 -0.0069965870899183743 0.10441739906322629
leaf_weight=1606.7225340008736 21691.954396665096 29114.793964922428 3424.6510833129287 898.51098666340113 501.13105853646994 142.29328287765384 214.88550443947315 493.9692529514432 5342.9305683746934 1941.4862793013453 641.71292408555746 214.61561320722103 2029.5602726787329 731.21073436737061 161.75328071415424
leaf_count=6944 38948 31129 7132 25311 3031 279 1877 709 28418 14332 2404 529 4048 23026 338
internal_value=0.0335402 0.0373281 0.0230495 0.0190343 0.0234225 -0.0233577 0.0258338 0.0190196 0.0158437 -0.00205278 0.0450366 -0.0207645 0.0424151 -0.0131224 0.013189
internal_weight=69152.2 50806.7 18345.4 14920.8 13129.3 643.424 12485.9 8849.6 8355.63 3012.7 856.598 2156.1 3636.28 1791.48 892.964
internal_count=188455 70077 118378 111246 62571 3310 59261 48269 47560 19142 4281 14861 10992 48675 23364
is_linear=0
shrinkage=0.05


Tree=25
num_leaves=16
num_cat=0
split_feature=0 20 13 16 21 23 6 13 6 6 13 9 17 7 6
split_gain=1394.87 858.096 666.719 662.218 606.493 558.52 515.333 966.188 726.447 547.434 488.01 430.372 402.184 387.39 768.127
threshold=3.5000000000000004 2.5000000000000004 89.733902759526941 1.5000000000000002 30.502628120893565 8.5000000000000018 43.629021218343603 106.52102496714851 48.642026009582487 42.706365503080086 87.434296977660992 1.0000000180025095e-35 70.417214191852835 1.0000000180025095e-35 18.013689253935663
decision_type=2 2 8 2 10 2 2 8 2 2 8 2 10 2 2
left_child=1 3 -2 4 5 6 9 11 12 10 13 -8 -9 -1 -15
right_child=2 -3 -4 -5 -6 -7 7 8 -10 -11 -12 -13 -14 14 -16
leaf_value=0.03075070305200224 0.040611085482160234 0.064052764647407709 -0.027477614808695584 -0.034803236536155489 0.042757468807449739 -0.069434883821252041 -0.052708340858448215 -0.054331004246320994 0.093061244750365438 0.10456873198951221 0.015486269688073075 0.075266409385771754 0.094796335558262071 -0.03598686787536165 0.043167404096309585
leaf_weight=17283.874868992716 32291.102729931474 1403.5299750119448 363.42297472059727 469.19693444669247 4225.8940645828843 163.9590901657939 748.36072948016226 196.24021963402629 320.87405587546527 211.66496537066996 10902.304363852367 71.898890295997262 58.625036403536797 643.74846285581589 584.84631100483239
leaf_count=48976 34669 683 1043 2739 4889 569 20451 8722 1294 524 59322 153 20 2595 1898
internal_value=0.0323075 0.0256989 0.0398531 0.0241983 0.0249803 0.0225711 0.0230578 -0.00662648 0.0430151 0.0244567 0.0238797 -0.041477 -0.0199849 0.0288223 0.00168921
internal_weight=69939.5 37285 32654.5 35881.5 35412.3 31186.4 31022.4 1396 575.739 29626.4 29414.8 820.26 254.865 18512.5 1228.59
internal_count=188547 152835 35712 152152 149413 144524 143955 30640 10036 113315 112791 20604 8742 53469 4493
is_linear=0
shrinkage=0.05


Tree=26
num_leaves=16
num_cat=0
split_feature=0 21 13 6 13 6 0 6 13 14 18 7 6 15 6
split_gain=1312.38 758.955 605.639 453.238 859.592 646.233 1299.16 482.929 417.492 402.636 447.346 402.671 587.944 340.73 318.556
threshold=3.5000000000000004 12.007227332457294 89.733902759526941 43.629021218343603 106.52102496714851 56.726899383983586 1.5000000000000002 42.706365503080086 87.434296977660992 1.5000000000000002 0.14283500000000002 1.0000000180025095e-35 18.013689253935663 1.0000000180025095e-35 21.430527036276526
decision_type=2 10 8 2 8 2 2 2 8 2 10 2 2 2 2
left_child=1 3 -2 7 -5 6 -6 8 9 11 14 -1 -13 -4 -11
right_child=2 -3 13 4 5 -7 -8 -9 -10 10 -12 12 -14 -15 -16
leaf_value=0.03030844424057479 0.038799667022138669 0.038478031016682034 -0.077333937095275584 -0.040279313314746296 -0.019551930683299155 0.10854686410206152 0.52496395411272578 0.096204747995813494 0.013665236323605712 0.020992467774841539 -0.083251168458145605 -0.036954368716757259 0.037064915145305015 0.019670848220408117 -0.058571194760670214
leaf_weight=15420.226144511253 32113.281414352357 7566.6843218766153 171.41492664068937 810.17879804223776 336.89211244136095 213.96789967641234 11.22222104296088 218.11377633363008 10569.881870264187 884.38177648559213 148.02081315219402 557.61640568077564 516.83690798655152 191.51104520261288 146.54694592952728
leaf_count=45424 34669 8959 704 20751 9800 209 15 541 59189 2297 706 2373 1870 339 701
internal_value=0.03072 0.0243342 0.0380737 0.0207467 -0.00731671 0.040185 -0.0018382 0.0221 0.0215272 0.0262287 -0.00199573 0.0282463 -0.00134459 -0.0261408 0.00967303
internal_weight=69876.8 37400.6 32476.2 29833.9 1372.26 562.082 348.114 28461.6 28243.5 17673.6 1178.95 16494.7 1074.45 362.926 1030.93
internal_count=188547 152835 35712 143876 30775 10024 9815 113101 112560 53371 3704 49667 4243 1043 2998
is_linear=0
shrinkage=0.05


Tree=27
num_leaves=16
num_cat=0
split_feature=0 20 6 21 13 6 6 11 10 0 0 17 18 13 12
split_gain=1242.01 607.911 519.388 416.284 699.016 508.566 411.13 530.882 392.257 380.688 357.701 337.6 561.721 337.616 457.125
threshold=2.5000000000000004 2.5000000000000004 36.3832991101985 73.965177398160321 94.497371879106439 56.726899383983586 3.1635865845311435 5.5000000000000009 1.5000000000000002 1.0000000180025095e-35 1.5000000000000002 64.471090670170838 1.0104150000000003 3.5315374507227335 1.0000000180025095e-35
decision_type=2 2 2 10 8 2 2 2 2 2 2 8 10 8 2
left_child=1 2 -1 4 8 9 7 -2 -4 -6 -11 -8 13 -13 -15
right_child=6 -3 3 -5 5 -7 11 -9 -10 10 -12 12 -14 14 -16
leaf_value=0.022502576481344582 -0.0055205216449122838 0.059678260684747145 -0.044632182379092125 0.076581981250334399 0.12253509905985574 0.083652909773758388 0.038459498248062239 0.10305716103371426 0.09861808889859193 -0.017456472868692337 0.077747795781105286 0.043803719511868344 -0.06117494626769019 0.035684437273617114 0.0030306365436742642
leaf_weight=28106.56782708317 1048.0344913564622 1028.6085321605206 976.99135788157582 158.41486402973533 61.640287399291992 239.6004688385874 30272.167874231935 126.01976710557938 50.132827714085579 802.05125881358981 112.39050970971584 2335.1081857960671 179.23569582402706 2257.5913183800876 2041.1539290435612
leaf_count=93271 2900 539 25978 70 10 345 30223 32 82 23141 230 2895 607 3904 4320
internal_value=0.0292178 0.0218708 0.0205957 -0.00172252 -0.00725875 0.0183957 0.0352736 0.00613744 -0.0376265 0.00236484 -0.00574259 0.0361959 0.0261369 0.0284976 0.0201812
internal_weight=69795.7 31536.4 30507.8 2401.22 2242.81 1215.68 38259.3 1174.05 1027.12 976.082 914.442 37085.3 6813.09 6633.85 4298.75
internal_count=188547 143666 143127 49856 49786 23726 44881 2932 26060 23381 23371 41949 11726 11119 8224
is_linear=0
shrinkage=0.05


Tree=28
num_leaves=16
num_cat=0
split_feature=0 20 16 13 17 13 21 18 21 19 18 17 21 18 18
split_gain=1182.7 754.838 571.595 554.034 535.572 479.609 470.913 436.718 388.567 351.064 322.571 314.696 296.132 295.151 404.102
threshold=3.5000000000000004 2.5000000000000004 1.5000000000000002 89.733902759526941 75.525624178712235 9.9047306176084113 87.483574244415266 0.09853000000000002 32.506570302233911 0.40229207304738485 2.0434950000000005 11.645860709592641 54.500657030223394 0.23198000000000005 0.28575500000000004
decision_type=2 2 2 8 8 10 8 8 8 10 8 8 10 8 8
left_child=1 2 4 -2 5 6 -1 -7 -6 -8 -4 -5 -10 -9 -15
right_child=3 -3 10 11 8 7 9 13 12 -11 -12 -13 -14 14 -16
leaf_value=0.036637460028114882 0.035559145564547645 0.058431431408914603 0.020996352304392698 0.017638818917969173 -0.063310304914542356 -0.032402874080662072 0.0028237156096799221 0.06713105356581138 0.014712853293999673 0.13270708092683894 -0.065779955188686304 -0.07581026317407541 -0.071826809312448975 -0.085413638684385201 0.030341445678959807
leaf_weight=1565.6373180001974 31706.223350249231 1354.846430554986 166.87365870550275 189.61116103827953 164.28698535636067 275.72642799466848 4110.5821588262916 547.58336302638054 12814.676469627768 52.595629200339317 298.29247425869107 171.38299368321896 99.506181666627526 75.635627746582031 16091.900864735246
leaf_count=1661 34669 683 780 333 895 1120 11740 534 105000 13 1959 710 631 353 27466
internal_value=0.0278024 0.0217878 0.0204185 0.0348578 0.0211341 0.0257745 0.0132617 0.029993 0.0130725 0.00446895 -0.0346413 -0.0267213 0.0140451 0.0310228 0.0297991
internal_weight=69685.4 37618.1 36263.3 32067.2 35798.1 22719.7 5728.82 16990.8 13078.5 4163.18 465.166 360.994 12914.2 16715.1 16167.5
internal_count=188547 152835 152152 35712 149413 42887 13414 29473 106526 11753 2739 1043 105631 28353 27819
is_linear=0
shrinkage=0.05


Tree=29
num_leaves=16
num_cat=0
split_feature=17 20 13 0 6 13 6 13 5 6 4 6 6 15 13
split_gain=1111.93 616.047 943.843 451.425 706.107 747.161 626.808 695.365 610.436 725.492 440.01 450.824 413.477 395.161 496.169
threshold=76.527595269382402 1.0000000180025095e-35 89.438239159001327 1.5000000000000002 19.809719370294321 131.73455978975036 23.270362765229297 136.31734559789751 1.0000000180025095e-35 56.726899383983586 1.0000000180025095e-35 34.016427104722801 14.347707049965779 2.5000000000000004 100.44349540078845
decision_type=8 2 8 2 2 8 2 8 2 2 2 2 2 2 8
left_child=1 2 12 4 -2 10 7 -7 9 -8 -6 -12 -1 14 -4
right_child=3 -3 13 -5 5 6 8 -9 -10 -11 11 -13 -14 -15 -16
leaf_value=0.023543355322772387 0.01627867901621146 0.037945584859462374 -0.035550307020236933 0.024175571625141695 -0.038921587989868292 0.43159016601001182 -0.055055961650574962 0.086783385594914081 0.11353010118751322 0.12596928116379205 -0.0012959852019154366 0.17062175361902462 0.035555072372942427 0.030292320756244537 0.0083539896675197782
leaf_weight=13209.721812129021 6986.2603800520301 17071.98917837441 783.697829015553 8282.113285863772 1660.3550573792309 18.057304993271828 286.70646005496383 75.863783560693264 112.38271333277225 68.474198471754789 179.94725729525089 48.267801078036427 15667.853016413748 1491.6904624551535 3595.1783132851124
leaf_count=23205 36650 15985 2860 18375 46591 31 10058 578 34 113 1263 402 18230 3625 10547
internal_value=0.0264699 0.0301671 0.0263452 0.0156565 0.00817867 -0.0149159 0.0357149 0.153518 0.0120129 -0.0201169 -0.0299726 0.0351018 0.0300607 0.00806731 0.00049456
internal_weight=69538.6 51820.1 34748.1 17718.4 9436.31 2450.05 561.484 93.9211 467.563 355.181 1888.57 228.215 28877.6 5870.57 4378.88
internal_count=188547 74452 58467 114095 95720 59070 10814 609 10205 10171 48256 1665 41435 17032 13407
is_linear=0
shrinkage=0.05


Tree=30
num_leaves=16
num_cat=0
split_feature=0 21 17 6 11 17 18 6 0 13 12 6 6 13 6
split_gain=1143.01 567.016 667.998 516.128 566.59 382.142 358.711 332.355 547.908 556.909 562.064 600.116 555.239 644.634 505.673
threshold=2.5000000000000004 96.994086727989497 76.527595269382402 3.2539356605065026 4.5000000000000009 100.98554533508543 0.030600000000000002 28.767967145790561 1.5000000000000002 94.497371879106439 1.0000000180025095e-35 38.002737850787135 56.726899383983586 105.40407358738504 16.784394250513348
decision_type=2 8 10 2 2 10 8 2 2 8 2 2 2 8 2
left_child=1 2 -1 4 -2 7 -5 14 9 10 -9 -12 13 -11 -3
right_child=3 5 -4 6 -6 -7 -8 8 -10 12 11 -13 -14 -15 -16
leaf_value=0.034510242729218904 -0.015674620430292437 0.012707835511883326 -0.091110608474650537 -0.03450248830112021 0.081910029038331292 0.065638493354552421 0.032439501074927879 -0.062228412481644568 0.03624701030417133 0.047475569460249605 0.067807983781044232 -0.061059128871282967 0.086947282623114464 -0.033313876046893981 0.031741400918832464
leaf_weight=5748.0662224981934 1015.9322614297271 18069.403173882514 107.69624717533588 201.07734514772892 174.15527194738388 366.81564064323902 36340.933749839664 770.98206764087081 754.35087202116847 387.01516595296562 211.53278624266386 157.51256539672613 198.71144408918917 681.61027224548161 4325.4392377510667
leaf_count=6929 2965 65856 452 517 91 530 41405 22765 1929 5924 390 4213 221 19244 15226
internal_value=0.0251312 0.0181444 0.0321975 0.0310156 -0.00138437 0.0149697 0.0320709 0.014242 -0.000931649 -0.0125847 -0.0379401 0.0127909 0.0102208 -0.00404865 0.0163844
internal_weight=69511.2 31779.1 5855.76 37732.1 1190.09 25923.4 36542 25556.6 3161.72 2407.36 1140.03 369.045 1267.34 1068.63 22394.8
internal_count=188657 143679 7381 44978 3056 136298 41922 135768 54686 52757 27368 4603 25389 25168 81082
is_linear=0
shrinkage=0.05


Tree=31
num_leaves=16
num_cat=0
split_feature=0 20 21 23 15 8 15 21 18 11 0 0 10 11 19
split_gain=1066.96 526.774 358.122 497.183 494.296 332.657 308.927 380.678 309.617 276.869 255.386 237.879 251.043 236.818 232.921
threshold=2.5000000000000004 2.5000000000000004 31.504599211563733 15.500000000000002 6.5000000000000009 3.5000000000000004 3.5000000000000004 53.958607095926418 0.033925000000000004 4.5000000000000009 18.500000000000004 15.500000000000002 1.5000000000000002 4.5000000000000009 0.40229207304738485
decision_type=2 2 10 2 2 2 2 10 8 2 2 2 2 2 10
left_child=1 2 3 13 -4 6 7 8 10 -7 -2 12 -11 14 -1
right_child=5 -3 4 -5 -6 9 -8 -9 -10 11 -12 -13 -14 -15 -16
leaf_value=0.014485805899545146 -0.10495021044284732 0.053136657656193999 0.035694803415392017 -0.1110591318351349 -0.075176375806011581 0.058139390205286634 0.040694754711701579 0.046963457259687626 0.025203153181092897 0.059185408450265091 0.024736219310450214 0.035324878219567604 -0.084607975812917041 -0.074338208109009304 0.074432213318645621
leaf_weight=27363.269968956709 83.544129468500614 988.75912375748158 3045.9821008294821 78.83451209962368 103.84065814316273 1786.5649310052395 4304.5537496507168 2085.6797726452351 27535.463751556352 46.535208404064178 69.358924001455307 1489.0377296954393 86.75250606238842 74.529561258852482 162.95321945846081
leaf_count=138084 356 546 3730 337 361 894 3991 1547 36420 26 81 1371 292 490 131
internal_value=0.0239465 0.0172122 0.0160597 0.0142414 0.0320358 0.0296622 0.028172 0.0263612 0.024809 0.0445575 -0.0461123 0.0295948 -0.0343607 0.0145999 0.0148411
internal_weight=69305.7 31818.2 30829.4 27679.6 3149.82 37487.5 34078.6 29774 27688.4 3408.89 152.903 1622.33 133.288 27600.8 27526.2
internal_count=188657 143679 143133 139042 4091 44978 42395 38404 36857 2583 437 1689 318 138705 138215
is_linear=0
shrinkage=0.05


Tree=32
num_leaves=16
num_cat=0
split_feature=0 17 21 21 13 14 18 19 21 13 7 18 13 0 17
split_gain=1022.68 847.887 630.763 630.472 433.167 440.226 570.65 396.855 370.486 342.873 479.991 499.15 471.939 456.276 436.992
threshold=6.5000000000000009 75.525624178712235 1.0000000180025095e-35 28.005913272010513 89.438239159001327 1.5000000000000002 0.016415000000000003 -0.023622041301269946 56.980946123521683 30.30551905387648 1.0000000180025095e-35 0.052255000000000003 91.442181340341662 2.5000000000000004 103.00591327201052
decision_type=2 8 10 8 8 2 10 8 10 8 2 10 8 2 10
left_child=1 2 4 -3 5 -1 -7 -4 9 10 11 -5 13 -11 -14
right_child=-2 3 7 8 -6 6 -8 -9 -10 12 -12 -13 14 -15 -16
leaf_value=0.025543030455357003 0.031995895643557357 -0.079652525424176709 -0.051994495830663179 0.026898935088528204 0.0071258731303348441 0.012507253348294972 -0.061080097869142362 0.035230558706280939 -0.076478004182154016 -0.022212065496750387 -0.018666861600399671 -0.087269342851809095 0.010051507431700663 0.022840473008980188 0.0770478935088795
leaf_weight=15491.724408827722 21053.906903274357 197.69470474496484 132.0823820233345 5407.9584219641984 5896.3553493097425 1484.7675383277237 320.1773889362812 9529.83182297647 122.17029035463929 2320.6702358666807 714.84582276828587 97.347523510456085 5378.5973209515214 741.38083244860172 254.86657576262951
leaf_count=24912 22100 1060 358 17366 16954 3311 1552 9164 709 29538 6178 432 53198 1554 271
internal_value=0.0228053 0.0187816 0.0233027 0.00903149 0.0188306 0.0228203 -0.000546225 0.0340371 0.0101982 0.010909 0.0198724 0.0248777 0.00449656 -0.011302 0.0130847
internal_weight=69144.4 48090.5 32854.9 15235.5 23193 17296.7 1804.94 9661.91 15037.8 14915.7 6220.15 5505.31 8695.51 3062.05 5633.46
internal_count=188657 166557 56251 110306 46729 29775 4863 9522 109246 108537 23976 17798 84561 31092 53469
is_linear=0
shrinkage=0.05


Tree=33
num_leaves=16
num_cat=0
split_feature=3 17 20 21 6 17 6 13 13 13 13 6 6 19 21
split_gain=952.251 775.678 589.569 581.182 524.46 568.413 476.941 413.736 432.858 375.045 483.755 549.631 360.837 360.042 357.249
threshold=0.15476190476190479 75.525624178712235 1.0000000180025095e-35 28.005913272010513 4.7104722792607818 18.643232588699082 1.7782340862423001 89.438239159001327 127.48028909329831 106.38961892247043 68.478975032851523 1.9452429842573582 36.3832991101985 -0.023622041301269946 56.980946123521683
decision_type=2 8 2 8 2 10 2 8 10 10 8 2 2 8 10
left_child=-1 2 4 -3 5 9 -7 -6 -9 10 11 -2 14 -4 -5
right_child=1 3 13 12 7 6 -8 8 -10 -11 -12 -13 -14 -15 -16
leaf_value=0.030665798173963782 0.0026727980835578678 -0.077712097506870775 -0.048774852544234221 0.012718004855445759 0.026076107957362954 -0.01187499730539947 0.034405125593004932 0.0012063148580554268 0.049236904280050856 -0.072857283072099835 0.01433607104512509 -0.067154826925553038 -0.016257697741225773 0.033807076926943555 -0.074943341442579109
leaf_weight=20873.421591468155 596.03410357236862 192.63051683455706 133.72337262332439 13716.891247592866 13885.454116471112 795.03766083717346 1855.4476324617863 3430.1623394265771 543.33880092948675 232.2980350330472 1307.0240535587072 534.21350410580635 1232.3372582625598 9436.9457043111324 117.10283251851797
leaf_count=22100 1814 1060 358 61681 20964 2755 3555 9468 850 1172 3891 2260 46897 9164 668
internal_value=0.0217497 0.017873 0.0222113 0.00856148 0.0178999 0.00411865 0.0205212 0.0220049 0.00777638 -0.0121649 -0.00637546 -0.0303299 0.00966537 0.0326522 0.0119751
internal_weight=68882.1 48008.6 32749.7 15259 23179 5320.05 2650.49 17859 3973.5 2669.57 2437.27 1130.25 15066.3 9570.67 13834
internal_count=188657 166557 56251 110306 46729 15447 6310 31282 10318 9137 7965 4074 109246 9522 62349
is_linear=0
shrinkage=0.05


Tree=34
num_leaves=16
num_cat=0
split_feature=0 17 20 21 6 17 6 13 13 18 13 13 6 18 18
split_gain=886.816 712.82 549.915 536.321 475.327 512.792 427.675 376.535 388.082 355.397 352.148 438.677 506.348 401.475 365.962
threshold=6.5000000000000009 75.525624178712235 1.0000000180025095e-35 28.005913272010513 4.7104722792607818 18.643232588699082 1.7782340862423001 89.438239159001327 127.48028909329831 13.614980000000001 106.38961892247043 68.478975032851523 1.9452429842573582 0.23054500000000003 0.034485000000000009
decision_type=2 8 2 8 2 10 2 8 10 10 10 8 2 10 8
left_child=1 2 4 -3 5 10 -7 9 -9 -6 11 12 14 -13 -1
right_child=-2 3 -4 -5 7 6 -8 8 -10 -11 -12 13 -14 -15 -16
leaf_value=0.099988982656487202 0.029392850968491605 -0.075930005816439078 0.031328157441997878 0.0091472591809461691 0.023388610899035999 -0.011327565032952505 0.032527336157152496 0.0011457307146718299 0.046518668135273084 0.069182826529233091 -0.071375488836718376 -0.004189675031671467 -0.064721287155594706 0.056621739398925224 -0.013189724914093119
leaf_weight=82.855452343821526 20693.212896332145 187.42842923104763 9478.9436523616314 15119.813924420625 13413.118761144578 791.87444598972797 1864.2041696757078 3430.9504638314247 546.2596969678998 437.55161453783512 225.440659083426 929.60828948765993 526.77823336422443 383.1496038287878 513.63089195638895
leaf_count=41 22100 1060 9522 109246 20753 2755 3555 9468 850 211 1172 3232 2260 659 1773
internal_value=0.020742 0.017007 0.0211837 0.00810472 0.0170289 0.00390777 0.0194508 0.0209422 0.00737986 0.0248361 -0.011602 -0.00606558 -0.0290036 0.0135583 0.00253721
internal_weight=68624.8 47931.6 32624.4 15307.2 23145.4 5317.54 2656.08 17827.9 3977.21 13850.7 2661.46 2436.02 1123.26 1312.76 596.486
internal_count=188657 166557 56251 110306 46729 15447 6310 31282 10318 20964 9137 7965 4074 3891 1814
is_linear=0
shrinkage=0.05


Tree=35
num_leaves=16
num_cat=0
split_feature=0 20 16 18 7 8 4 21 18 17 17 6 19 18 19
split_gain=817.791 603.027 425.828 372.392 349.348 333.632 411.566 326.521 407.974 328.86 325.229 418.066 365.602 388.493 371.259
threshold=3.5000000000000004 2.5000000000000004 1.5000000000000002 2.0434950000000005 1.0000000180025095e-35 3.5000000000000004 1.0000000180025095e-35 30.502628120893565 0.11353500000000001 74.58935611038109 2.2174770039421818 1.2936344969199181 1.7386001670365241e-16 0.52201000000000009 -1.5315259768038386e-17
decision_type=2 2 2 8 2 2 2 10 8 10 8 2 10 10 10
left_child=1 2 4 -4 7 6 -2 8 -1 -9 11 -10 14 -14 -12
right_child=5 -3 3 -5 -6 -7 -8 9 10 -11 12 -13 13 -15 -16
leaf_value=-0.033933826040834641 0.02103922288595737 0.049421697886728462 0.024063179671381947 -0.066988405942839002 -0.010110897793308227 0.040650356920972096 0.037829448886174795 0.031069907719326939 -0.054710572889304254 -0.066636309504953528 0.011802397802850273 0.034953644877823986 -0.033211827538676256 0.052871669630546028 -0.044930785046328768
leaf_weight=450.54954139888287 22660.734225824475 1198.044882953167 178.00762229040265 303.61565605551004 1441.9929459411651 3273.1067323684692 4351.84625685215 3722.4744073692709 136.73814733326435 88.037440538406372 25946.255999798886 2591.2130639702082 152.3335468173027 933.15682619810104 291.47424007207155
leaf_count=1854 29125 671 762 1972 7839 2528 4051 4362 656 324 127530 4237 514 1061 1020
internal_value=0.019463 0.0145204 0.0133662 -0.0333274 0.0139954 0.0255719 0.0237445 0.0150087 0.0132843 0.0288095 0.0139925 0.0304556 0.0123486 0.0407845 0.0111718
internal_weight=67719.6 37433.9 36235.8 481.623 35754.2 30285.7 27012.6 34312.2 30501.7 3810.51 30051.2 2727.95 27323.2 1085.49 26237.7
internal_count=188506 152802 152131 2734 149397 35704 33176 141558 136872 4686 135018 4893 130125 1575 128550
is_linear=0
shrinkage=0.05


Tree=36
num_leaves=16
num_cat=0
split_feature=13 20 7 17 23 21 17 7 6 0 13 19 6 13 6
split_gain=836.854 566.324 408.347 404.942 445.337 304.386 282.837 307.46 304.044 302.313 396.517 349.786 325.465 546.972 399.895
threshold=2.2831800262812094 1.0000000180025095e-35 1.5000000000000002 49.490801576872542 9.5000000000000018 64.01116951379764 32.375164257555852 1.0000000180025095e-35 29.984941820670777 1.5000000000000002 78.695795006570322 -1.0385540110903021e-16 11.355236139630392 110.39750328515113 45.641341546885705
decision_type=8 2 2 8 2 10 10 2 2 2 8 10 2 8 2
left_child=-1 2 6 -3 5 -5 -2 9 -9 10 -8 12 -12 -14 -15
right_child=1 3 -4 4 -6 -7 7 8 -10 -11 11 -13 13 14 -16
leaf_value=0.030984703561367694 0.0099898957003493796 0.028744174313137024 0.044068587565529026 0.015017802129445867 -0.10333847953469272 -0.062155237204088845 -0.014044105107405516 -0.00065581021513897884 -0.10608276598551672 0.027891861942861251 -0.0053836105461577879 0.070718915951027028 0.055596318783695725 -0.062912004371679819 0.055705881116880886
leaf_weight=11271.8206984438 30613.344966162927 11335.839088320732 1048.4178992509842 1855.930596832186 91.004667431116104 137.100505778566 1165.8997294306755 717.27370177209377 75.506161659955978 6706.986657679081 1075.5738354697824 312.83025421202183 786.14097176492214 207.56678573787212 107.8804946988821
leaf_count=14541 137287 11445 771 3573 434 645 3324 1313 314 8638 3746 386 1046 855 188
internal_value=0.0185497 0.0160572 0.0132479 0.02502 0.00476032 0.00970371 0.012474 0.0192903 -0.0107153 0.0215864 0.0100168 0.021285 0.0141768 0.0332785 -0.022325
internal_weight=67509.1 56237.3 42817.4 13419.9 2084.04 1993.03 41769 11155.7 792.78 10362.9 3655.89 2489.99 2177.16 1101.59 315.447
internal_count=188506 173965 157868 16097 4652 4218 157097 19810 1627 18183 9545 6221 5835 2089 1043
is_linear=0
shrinkage=0.05


Tree=37
num_leaves=16
num_cat=0
split_feature=13 20 16 13 17 6 18 18 6 13 17 6 15 18 6
split_gain=772.066 544.63 361.169 446.246 373.17 399.959 481.182 399.741 362.623 352.208 321.265 359.344 284.26 460.899 426.009
threshold=2.2831800262812094 1.5000000000000002 1.5000000000000002 16.409329829172147 78.531537450722752 1.2936344969199181 0.034485000000000009 0.014765000000000002 9.7344284736481885 155.14126149802891 37.270039421813408 12.223134839151269 8.5000000000000018 0.084930000000000019 10.3750855578371
decision_type=8 2 2 10 8 2 8 10 2 10 8 2 2 10 2
left_child=-1 2 4 8 5 7 -7 -2 -4 -6 -3 -12 -8 14 -14
right_child=1 10 3 -5 9 6 12 -9 -10 -11 11 -13 13 -15 -16
leaf_value=0.029673385515799747 0.0040296714222696327 0.035779356652263825 0.068412088928281947 -0.069050112221892473 0.007022241931987994 -0.049467093523688561 0.019404010699949865 -0.062662829418296123 -0.044198158216199795 0.084397467991285585 -0.072157151070944392 0.018949408096991437 -0.076115976277691705 -0.10034888046816977 0.028615492125636605
leaf_weight=11183.734006190673 1229.7846388071775 4360.4873276650906 161.33822722360492 291.81991971284151 15408.110244612209 260.56104390323162 32591.759859986603 274.77478384971619 128.16835516691208 148.40526972711086 144.60664676129818 429.20026762783527 123.69064918160439 123.69947336614132 450.06324735283852
leaf_count=14541 3648 3640 386 1933 107633 974 50912 1286 592 171 511 593 515 559 612
internal_value=0.0176766 0.015286 0.0137566 -0.0254237 0.0142068 0.0170671 0.0181981 -0.00815028 0.0185427 0.00776124 0.0311512 -0.00401046 0.018728 -0.0128505 0.0060193
internal_weight=67310.2 56126.5 51192.2 581.327 50610.8 35054.3 33549.8 1504.56 289.507 15556.5 4934.29 573.807 33289.2 697.453 573.754
internal_count=188506 173965 169221 2911 166310 58506 53572 4934 978 107804 4744 1104 52598 1686 1127
is_linear=0
shrinkage=0.05


Tree=38
num_leaves=16
num_cat=0
split_feature=0 20 7 8 6 1 0 19 11 19 6 0 6 1 20
split_gain=697.846 537.99 314.05 304.391 301.506 543.925 262.958 264.101 262.767 257.432 251.898 412.446 339.178 235.319 234.886
threshold=3.5000000000000004 2.5000000000000004 1.0000000180025095e-35 3.5000000000000004 18.013689253935663 1.0000000180025095e-35 44.500000000000007 -0.0099446849715050765 3.5000000000000004 -0.16602328636703576 29.984941820670777 1.5000000000000002 21.635865845311432 12.500000000000002 1.5000000000000002
decision_type=2 2 2 2 2 2 2 8 2 8 2 2 2 2 2
left_child=1 2 9 6 -4 -6 14 -8 -5 -1 12 -12 -11 -10 -2
right_child=3 -3 4 8 5 -7 7 -9 13 10 11 -13 -14 -15 -16
leaf_value=-0.082584050632378975 0.019175324228699761 0.046060507629328271 -0.034204686216201853 0.054248335048864241 -0.045215148435741849 0.044631863651530788 0.048281050139396597 -0.13093695724961779 -0.040982526367469858 0.012068981357803288 -0.011817697470507772 0.022140807271658937 0.028891230739580248 0.029861793301942885 0.032574629857786704
leaf_weight=71.382009938359261 22565.994130253792 1144.782503336668 729.60611267760396 1322.5820167809725 267.36537750810385 454.83693680912256 32.343087315559387 55.95345301926136 125.68939846754074 27537.718219488859 2487.4168071532622 1395.8110608868301 3362.8465986475348 1711.7395099252462 3826.8764390796423
leaf_count=400 29459 671 2759 631 4702 427 19 277 304 82094 49537 2953 9259 1593 3421
internal_value=0.0168488 0.0123119 0.0112476 0.0225809 -0.0115353 0.0113612 0.0208301 -0.0652524 0.0372508 0.0121967 0.0123916 0.000387522 0.0139 0.025011 0.0211185
internal_weight=67092.9 37451.8 36307 29641.2 1451.81 722.202 26481.2 88.2965 3160.01 34855.2 34783.8 3883.23 30900.6 1837.43 26392.9
internal_count=188506 152802 152131 35704 7888 5129 33176 296 2528 144243 143843 52490 91353 1897 32880
is_linear=0
shrinkage=0.05


Tree=39
num_leaves=16
num_cat=0
split_feature=13 20 7 19 19 18 20 16 21 21 18 1 13 18 18
split_gain=701.725 480.239 361.812 230.843 807.035 381.309 323.269 409.895 287.372 302.369 267.7 219.492 211.873 288.335 259.613
threshold=2.2831800262812094 1.0000000180025095e-35 1.5000000000000002 1.4600943408532994e-16 -4.639353623979522e-17 0.089925000000000019 2.5000000000000004 1.5000000000000002 73.965177398160321 67.033508541392919 1.9482950000000001 8.5000000000000018 82.276609724047304 0.16024500000000003 2.9260850000000005
decision_type=8 2 2 8 10 10 2 2 10 10 10 2 8 8 8
left_child=-1 2 12 4 10 6 7 8 9 -5 -3 -12 -2 -14 -15
right_child=1 3 -4 5 -6 -7 -8 -9 -10 -11 11 -13 13 14 -16
leaf_value=0.0275943466821734 0.01303321438178897 0.02115089230796563 0.040771361360507984 0.01511332277554682 -0.14118492308793987 0.0442473548148948 0.04070343091159604 -0.086438266384352869 0.040325339574747904 -0.060266626662217576 -0.14304305898244107 0.018967579930221232 -0.047976802488005593 0.029363288148945482 0.004392167867082717
leaf_weight=11012.889209305868 27765.630418597721 910.04435244202614 1011.3119393363595 7004.2094658035785 92.376417234539986 1974.7574879825115 1614.3738925606012 95.911487728357315 1179.4366110824049 135.48921339958906 47.386582568287849 37.224324598908424 247.5841072127223 1134.4351818189025 12621.456227554008
leaf_count=14541 73294 1026 771 10045 417 1328 1122 412 1058 434 212 43 1340 2276 80187
internal_value=0.0160584 0.0137844 0.0112198 0.0221646 9.60467e-05 0.0241626 0.0202071 0.016274 0.0174598 0.0136813 0.0132351 -0.0717697 0.0105041 0.00548907 0.00645207
internal_weight=66884.5 55871.6 42780.4 13091.2 1087.03 12004.2 10029.4 8415.05 8319.14 7139.7 994.655 84.6109 41769.1 14003.5 13755.9
internal_count=188506 173965 157868 16097 1698 14399 13071 11949 11537 10479 1281 255 157097 83803 82463
is_linear=0
shrinkage=0.05


Tree=40
num_leaves=16
num_cat=0
split_feature=23 20 23 0 17 17 21 16 13 6 21 6 23 13 6
split_gain=665.087 676.494 619.438 519.353 364.319 362.691 449.408 425.924 434.039 377.811 350.851 419.579 338.858 385.076 333.865
threshold=272.50000000000006 2.5000000000000004 53.500000000000007 6.5000000000000009 25.410643889618925 76.527595269382402 28.005913272010513 1.5000000000000002 16.409329829172147 9.7344284736481885 73.012483574244428 1.129363449691992 1.0000000180025095e-35 70.417214191852835 8.2532511978097212
decision_type=2 2 2 2 10 8 8 2 10 2 10 2 2 10 2
left_child=1 2 3 5 -4 7 -7 10 9 -9 11 -1 13 -5 -15
right_child=-2 -3 4 12 -6 6 -8 8 -10 -11 -12 -13 -14 14 -16
leaf_value=-0.012427806106040863 -0.17907754238246384 0.040015699878533165 -0.12930419405543875 0.020758815974841999 0.034074314216708264 -0.073202571732618668 0.0072611147124199867 0.055875210410644673 -0.068212264687571356 -0.069222935442426692 0.043990001103168183 0.016809955005604286 0.038895257657174956 0.020453667514849332 -0.089721045611329958
leaf_weight=1284.3764396309853 43.52544479072094 2856.2314632534981 116.75040996074677 15215.824887126684 48.084236279129982 175.40363903343678 15377.405995531939 198.27834809571505 301.8326398730278 86.62759954482317 1123.0841110795736 27373.5520048365 2699.511365160346 127.74704319238663 148.593236066401
leaf_count=4389 217 1955 511 18029 44 1030 108829 428 2027 548 763 46623 2060 210 542
internal_value=0.0160778 0.0162046 0.0151464 0.0153954 -0.0816227 0.0125627 0.00635286 0.0157428 -0.0264376 0.0178098 0.0165741 0.0154994 0.0225457 0.0196962 -0.0387822
internal_weight=67176.8 67133.3 64277.1 64112.2 164.835 45920.6 15552.8 30367.8 586.739 284.906 29781 28657.9 18191.7 15492.2 276.34
internal_count=188205 187988 186033 185478 555 164637 109859 54778 3003 976 51775 51012 20841 18781 752
is_linear=0
shrinkage=0.05


Tree=41
num_leaves=16
num_cat=0
split_feature=23 21 17 0 0 23 0 18 21 4 17 21 17 14 21
split_gain=564.069 515.457 480.235 458.616 420.922 364.468 357.827 335.427 304.399 307.8 300.394 281.802 372.105 316.614 455.406
threshold=272.50000000000006 43.051905387647835 4.6156373193166891 53.500000000000007 6.5000000000000009 15.500000000000002 1.5000000000000002 0.44374500000000006 26.98751642575559 1.0000000180025095e-35 5.2069645203679373 73.012483574244428 22.683968462549277 1.5000000000000002 54.024310118265447
decision_type=2 8 8 2 2 2 2 10 10 2 10 10 8 2 10
left_child=1 2 -1 4 11 7 -7 -4 9 10 -8 13 -13 -3 -15
right_child=-2 3 5 -5 -6 6 8 -9 -10 -11 -12 12 -14 14 -16
leaf_value=0.039096449607127964 -0.15806368487970923 0.011567137258931768 0.01580276148899748 -0.13373395633955182 0.021058730908655624 -0.12227545751358987 0.028742718542028992 0.043645585461259469 0.024793778377551711 0.0079554752939766903 -0.15151578855715306 0.046845012152220755 -0.03230914611777088 -0.002647027560141338 -0.14322221166745142
leaf_weight=3978.0551319122314 46.766133815050125 36992.552296620794 5739.1610813178122 52.78482311218977 14000.631803698838 72.631740976125002 31.116150088608265 1333.3391657918692 353.35807041823864 121.88441814482212 88.948744565248489 1003.1148462444544 174.11827536672354 2892.7794301770627 58.686878994107246
leaf_count=2934 217 148677 7969 268 16502 320 39 921 369 164 414 616 565 7967 263
internal_value=0.0153305 0.015452 0.0249763 0.013429 0.0135703 0.0177185 -0.0175803 0.0210531 -0.00478 -0.0479845 -0.104773 0.0110205 0.0351317 0.0103097 -0.00544867
internal_weight=66939.9 66893.2 11718.5 55174.7 55121.9 7740.44 667.939 7072.5 595.307 241.949 120.065 41121.3 1177.23 39944 2951.47
internal_count=188205 187988 13130 174858 174590 10196 1306 8890 986 617 453 158088 1181 156907 8230
is_linear=0
shrinkage=0.05


Tree=42
num_leaves=16
num_cat=0
split_feature=13 23 20 16 21 23 13 21 19 20 23 18 18 6 8
split_gain=505.16 410.065 474.662 521.07 356.094 507.348 333.855 304.549 297.344 295.353 373.164 238.076 231.503 296.747 239.736
threshold=2.2831800262812094 272.50000000000006 2.5000000000000004 1.5000000000000002 29.977003942181344 15.500000000000002 16.409329829172147 27.020367936925101 -0.087848386707160012 1.5000000000000002 8.5000000000000018 1.1347000000000003 13.614980000000001 10.210814510609174 1.5000000000000002
decision_type=8 2 2 2 10 2 10 10 10 2 2 8 10 2 2
left_child=-1 2 3 4 5 9 8 -7 -5 10 12 -6 -2 14 -14
right_child=1 -3 -4 6 11 7 -8 -9 -10 -11 -12 -13 13 -15 -16
leaf_value=0.024501071236886968 0.010326754309934431 -0.14142511500949337 0.036713847805261837 -0.044828601432294252 0.042573659240082912 -0.10257809594351051 -0.069244456705035776 0.020002125731298549 0.048915150383054974 0.033807174842119897 -0.12274551280826368 0.018648490054548262 -0.090484320133038976 0.05839830140359064 0.057976823893111054
leaf_weight=10808.088256606832 44340.508038712665 43.022487506270409 2002.8121440559626 168.61328705027699 1292.6926496773958 156.47755068913102 317.01500397920609 74.779892772436142 169.5359779894352 1412.9534681290388 52.308184280991554 5326.1897491086274 68.18260882049799 489.5366867184639 45.060532629489899
leaf_count=14619 157947 189 1471 774 870 612 2141 88 340 1238 244 7069 316 260 27
internal_value=0.0146045 0.0126929 0.0128118 0.0119237 0.012469 0.0109286 -0.0323898 -0.0629272 0.00215696 0.0112969 0.0105898 0.0233225 0.0107454 0.0415235 -0.0313671
internal_weight=66767.8 55959.7 55916.7 53913.9 53258.7 46639.8 655.164 231.257 338.149 46408.5 44995.6 6618.88 44943.3 602.78 113.243
internal_count=188205 173586 173397 171926 168671 160732 3255 700 1114 160032 158794 7939 158550 603 343
is_linear=0
shrinkage=0.05


Tree=43
num_leaves=16
num_cat=0
split_feature=13 21 11 7 23 15 14 21 23 18 5 15 18 19 19
split_gain=465.746 375.606 328.728 317.397 211.777 343.544 417.703 318.186 231.817 223.572 199.809 301.289 225.018 230.617 257.095
threshold=2.2831800262812094 1.0000000180025095e-35 12.500000000000002 1.5000000000000002 10.500000000000002 6.5000000000000009 2.5000000000000004 71.994086727989497 2.5000000000000004 0.45492500000000008 1.0000000180025095e-35 1.0000000180025095e-35 0.28575500000000004 4.7519403881806197e-05 -0.031631836357328469
decision_type=8 10 2 2 2 2 2 10 2 10 2 2 10 8 10
left_child=-1 2 3 -2 8 6 7 9 10 -6 11 12 -3 14 -14
right_child=1 4 -4 -5 5 -7 -8 -9 -10 -11 -12 -13 13 -15 -16
leaf_value=0.023457051270939118 0.0092971702409232262 0.001824301635598729 -0.15998665280372129 0.037764129738360852 -0.0097902088494382783 0.034920787359728957 -0.14462969350237673 0.058754513502983163 0.037017197407234997 -0.10621159229227176 0.041863969009985624 0.026389861544743088 0.033504896343679452 0.046698423433417909 -0.10534086112265664
leaf_weight=10726.79481998831 42049.123394829221 3513.2328846305609 28.370170623064041 1002.5623479261994 902.09428120404482 585.50253477692604 56.335955068469048 165.65027619898319 2128.1067906990647 64.334346234798431 838.79407126456499 3819.1373264938593 78.031481519341469 570.54720900952816 58.026932463049889
leaf_count=14619 156644 6487 133 783 1659 470 265 65 1727 245 672 3807 67 345 217
internal_value=0.013914 0.0120813 0.00984789 0.00996029 0.0196094 0.00357359 -0.0118678 -0.00524455 0.0221935 -0.0162244 0.0186391 0.0162147 0.00700421 0.0327477 -0.025708
internal_weight=66586.6 55859.9 43080.1 43051.7 12779.8 1773.92 1188.41 1132.08 11005.9 966.429 8877.77 8038.98 4219.84 706.606 136.058
internal_count=188205 173586 157560 157427 16026 2704 2234 1969 13322 1904 11595 10923 7116 629 284
is_linear=0
shrinkage=0.05


Tree=44
num_leaves=16
num_cat=0
split_feature=20 23 1 15 6 13 6 9 13 15 17 6 17 13 15
split_gain=447.547 492.552 451.598 554.859 494.257 519.382 433.633 519.624 508.167 506.107 467.625 588.642 467.227 450.48 383.767
threshold=2.5000000000000004 53.500000000000007 1.0000000180025095e-35 11.500000000000002 1.129363449691992 14.405387647831802 19.809719370294321 1.0000000180025095e-35 84.280551905387668 1.5000000000000002 27.775952693823921 14.550308008213554 14.273981603153747 81.685282522996076 22.500000000000004
decision_type=2 2 2 2 2 8 2 2 8 2 10 2 8 10 2
left_child=1 2 3 6 5 -4 7 8 10 -9 -1 13 -8 -12 -7
right_child=-2 -3 4 -5 -6 14 12 9 -10 -11 11 -13 -14 -15 -16
leaf_value=0.029745454307168431 0.033019645685220346 -0.073373851578413904 0.022470437614696033 -0.085199722983822779 0.016333483478953664 -0.050940723542190772 0.018958324190661308 -0.052029878858884708 0.0042693871912303045 0.041552400782377097 -0.048806873157456049 0.050282971296870142 -0.015241522542566872 0.054226512325105558 0.0805153921593489
leaf_weight=5429.7376368306577 2745.6124269217253 166.81366971135139 553.86781938374043 164.43714537844062 42969.958989322186 721.00099895149469 1385.1579540297389 574.64635774493217 6820.9358814805746 192.84622414410114 613.20944413542747 318.42140901088715 3577.7540681371465 128.14491593837738 60.034325525164604
leaf_count=14693 2172 555 1157 869 63366 3234 3056 3002 30568 348 2125 400 62490 146 24
internal_value=0.0132535 0.0124011 0.0126266 0.00622229 0.0154026 -0.0145571 0.00701252 0.0114927 0.0137997 -0.0285068 0.0238157 -0.00656043 -0.00569508 -0.0309856 -0.0408209
internal_weight=66422.6 63677 63510.2 19205.3 44304.9 1334.9 19040.9 14077.9 13310.4 767.493 6489.51 1059.78 4962.91 741.354 781.035
internal_count=188205 186033 185478 117697 67781 4415 116828 51282 47932 3350 17364 2671 65546 2271 3258
is_linear=0
shrinkage=0.05


Tree=45
num_leaves=16
num_cat=0
split_feature=17 6 18 18 18 5 17 23 6 9 14 21 6 21 21
split_gain=524.058 410.837 501.674 453.785 367.08 425.783 365.587 343.203 342.484 297.96 259.599 250.934 247.863 246.682 300.392
threshold=64.963863337713533 17.014373716632445 0.034485000000000009 0.11353500000000001 1.0703350000000003 1.0000000180025095e-35 94.546649145860712 1.0000000180025095e-35 2.5448323066392886 2.5000000000000004 17.500000000000004 56.980946123521683 43.629021218343603 52.973061760841006 47.026938239159009
decision_type=8 2 8 8 10 2 10 2 2 2 2 10 2 10 10
left_child=1 3 12 8 6 -6 9 10 -1 11 13 -2 -3 14 -5
right_child=4 2 -4 7 5 -7 -8 -9 -10 -11 -12 -13 -14 -15 -16
leaf_value=0.017457662632261089 0.0052386174947834556 -0.14071925075633981 0.020555084526154857 0.0076032458208306663 -0.079619968878053143 0.061356701057098145 0.030291307754705857 0.02701501001853597 -0.047161263303856504 -0.051743352870645937 0.055497034310176378 -0.055486361444568304 0.028422672577918324 0.028888721139112079 -0.082062152606396876
leaf_weight=315.50338952615857 18601.814011272043 72.126906551420689 19688.550824098289 19105.737193401903 244.44995068758726 68.458111792802811 1418.7125639766455 3152.7169628739357 584.90957052260637 236.79541176557541 299.89223178476095 171.58138810284436 30.830543279647827 1402.3278371989727 93.757525235414505
leaf_count=777 113580 358 24496 37638 998 72 2042 3147 2126 715 202 809 36 1338 300
internal_value=0.0115537 0.014599 0.019979 0.0103318 0.00498376 -0.0487513 0.0058073 0.0116365 -0.0245139 0.00397966 0.00931652 0.00468306 -0.0900429 0.00864378 0.00716469
internal_weight=65488.2 44746.4 19791.5 24954.8 20741.8 312.908 20428.9 24054.4 900.413 19010.2 20901.7 18773.4 102.957 20601.8 19199.5
internal_count=188634 70418 24890 45528 118216 1070 117146 42625 2903 115104 39478 114389 394 39276 37938
is_linear=0
shrinkage=0.05


Tree=46
num_leaves=16
num_cat=0
split_feature=17 19 6 1 21 13 6 6 19 13 17 9 22 6 17
split_gain=480.186 401.001 376.345 396.285 332.786 314.811 475.271 340.93 577.267 445.48 296.365 291.462 274.865 250.638 248.715
threshold=64.963863337713533 -0.16602328636703576 17.014373716632445 32.500000000000007 97.50328515111697 93.4132720105125 7.1088295687885017 4.7104722792607818 -0.017056004634818552 101.46189224704337 94.546649145860712 2.5000000000000004 1.0000000180025095e-35 14.971937029431897 24.260840998685939
decision_type=8 8 2 2 8 8 2 2 10 10 10 2 2 2 10
left_child=1 -1 3 4 13 -6 7 8 -7 -10 11 -2 -9 -3 -8
right_child=10 2 -4 -5 5 6 14 12 9 -11 -12 -13 -14 -15 -16
leaf_value=-0.066151670492715142 0.0037964298261926087 0.023270005578840978 0.019401949220196255 -0.10598976163024046 0.010427882577264593 -0.024741462357634188 -0.04819048071693259 0.045057713879708042 0.057186684689794612 -0.073384583135764847 0.026606744128163679 -0.050882766564639581 -0.032916452892848669 -0.011419863777352331 -0.0032428875487968338
leaf_weight=155.63251810148358 19078.286312197335 5904.8121998310089 19569.814914152026 73.153090596199036 14385.883346244693 1221.4479679912329 779.3776383921504 713.97984556108713 445.8266037106514 76.416914708912373 1440.5291850268841 246.7556764408946 134.12156184762716 570.78616325557232 509.01967336237431
leaf_count=642 115314 6277 24648 263 25648 4877 3020 1304 612 400 2154 748 442 1011 1274
internal_value=0.0110085 0.0139361 0.0142171 0.010128 0.0104719 0.00701875 -0.00561935 0.00671699 -0.00592788 0.038061 0.00472893 0.00309773 0.0327183 0.0202114 -0.0304381
internal_weight=65305.8 44540.3 44384.6 24814.8 24741.7 18266.1 3880.19 2591.79 1743.69 522.244 20765.6 19325 848.101 6475.6 1288.4
internal_count=188634 70418 69776 45128 44865 37577 11929 7635 5889 1012 118216 116062 1746 7288 4294
is_linear=0
shrinkage=0.05


Tree=47
num_leaves=16
num_cat=0
split_feature=23 17 6 18 18 18 5 23 17 6 4 17 21 21 17
split_gain=443.425 457.464 364.776 454.723 390.697 332.511 387.116 317.229 302.821 300.848 293.232 291.438 434.276 377.164 369.206
threshold=272.50000000000006 64.963863337713533 17.014373716632445 0.034485000000000009 0.11353500000000001 1.0703350000000003 1.0000000180025095e-35 1.0000000180025095e-35 94.546649145860712 2.5448323066392886 1.0000000180025095e-35 1.1990801576872538 52.973061760841006 87.483574244415266 18.643232588699082
decision_type=2 8 2 8 8 10 2 2 10 2 2 8 8 8 10
left_child=1 2 4 -4 9 8 -7 10 -3 -1 11 -6 -13 -14 -15
right_child=-2 5 3 -5 7 6 -8 -9 -10 -11 -12 12 13 14 -16
leaf_value=0.01627635301784831 -0.13594721266898782 0.0036145051425406425 -0.085816705349817585 0.019160299132566977 0.02529433893514136 -0.076434589737601116 0.05802939422872129 0.025640204723243427 0.027629544358702848 -0.044463724516854028 0.019501772001730953 -0.030130992439921511 0.035563496818392382 -0.0062971028889126273 0.010850420050291989
leaf_weight=314.87662077322602 51.549533128738403 19063.993589979596 103.59513637423515 19376.035018853843 1632.4903366416693 242.67793168127537 68.543042689561844 3082.6370637267828 1409.7641400396824 577.4035590402782 4660.5348721109331 925.23930422961712 955.11023837327957 5802.6108726337552 6838.0278595536947
leaf_count=777 223 115104 394 24332 2732 998 72 3108 2042 2106 7768 1990 766 13778 12444
internal_value=0.0104916 0.0106079 0.013481 0.0186013 0.00945709 0.00448845 -0.0467952 0.0106702 0.00526848 -0.0230241 0.00845275 0.00526452 0.00301221 0.00526829 0.00297857
internal_weight=65105.1 65053.5 44268.6 19479.6 24788.9 20785 311.221 23896.7 20473.8 892.28 20814 16153.5 14521 13595.7 12640.6
internal_count=188634 188411 70195 24726 45469 118216 1070 42586 117146 2883 39478 31710 28978 26988 26222
is_linear=0
shrinkage=0.05


Tree=48
num_leaves=16
num_cat=0
split_feature=20 23 1 6 6 19 15 19 19 18 19 13 18 18 13
split_gain=459.561 453.042 374.967 531.174 442.17 465.779 437.082 405.928 381.867 398.666 360.683 354.682 416.666 349.354 345.512
threshold=2.5000000000000004 53.500000000000007 1.0000000180025095e-35 0.96235455167693373 17.014373716632445 6.0193590035907647e-17 11.500000000000002 0.021154628535304882 -3.4037465457125236e-17 0.058500000000000003 -4.7014014537332558e-17 8.6235216819973726 0.13970500000000005 0.034485000000000009 133.09789750328517
decision_type=2 2 2 2 2 8 2 8 10 10 10 8 10 8 10
left_child=1 2 3 14 5 8 7 -5 10 -10 11 -4 -13 -6 -1
right_child=-2 -3 4 6 13 -7 -8 -9 9 -11 -12 12 -14 -15 -16
leaf_value=0.025081156853036614 0.030432347410364175 -0.072613912656421351 -0.05250234549568792 0.032483226105197598 -0.079401794312950635 0.0095066768549584603 -0.08473022744307615 -7.7702899549361942e-05 0.061937992168041869 -0.079413676971557379 0.061369497789680261 -0.062229441977359003 0.022529259766140647 0.018249754190810874 0.11937046121615853
leaf_weight=1485.9902980625629 2639.3365870118141 168.92493580281734 405.61032889783382 1015.7825356274843 91.930520813912153 22374.24555015564 147.04434405267239 16560.411724952981 58.052654027938843 350.05407483875751 181.51706705987453 184.76765782386065 672.08476685732603 18485.652841813862 103.90705281496048
leaf_count=5236 2173 561 1221 1857 307 40048 782 110090 36 1326 115 918 1122 22679 163
internal_value=0.0099965 0.00913041 0.00935291 0.00356921 0.0119624 0.00751184 0.00108528 0.00180398 -0.0165834 -0.0592841 -0.00450833 -0.0139883 0.00424133 0.0177658 0.0312537
internal_weight=64925.3 62286 62117.1 19313.1 42803.9 24226.3 17723.2 17576.2 1852.09 408.107 1443.98 1262.46 856.852 18577.6 1589.9
internal_count=188634 186461 185900 118128 67772 44786 112729 111947 4738 1362 3376 3261 2040 22986 5399
is_linear=0
shrinkage=0.05


Tree=49
num_leaves=16
num_cat=0
split_feature=20 16 15 17 21 13 1 13 18 13 6 21 17 17 6
split_gain=427.054 338.833 485.575 374.599 280.676 467.723 419.112 288.67 292.198 399.249 381.618 336.332 420.411 458.359 454.784
threshold=2.5000000000000004 1.5000000000000002 22.500000000000004 64.963863337713533 73.965177398160321 9.4776609724047329 1.0000000180025095e-35 88.945466491458617 0.40562000000000004 102.77595269382392 4.5927446954141002 32.013797634691201 6.4881734559789761 59.444809461235224 22.788501026694046
decision_type=2 2 2 8 10 8 2 8 10 10 2 10 10 10 2
left_child=1 3 -3 4 7 6 -6 -1 9 11 -11 12 -9 14 -14
right_child=-2 2 -4 -5 5 -7 -8 8 -10 10 -12 -13 13 -15 -16
leaf_value=0.013092587899200123 0.029388552740123981 -0.048421584171315118 0.041596908646306455 0.0036212327486085058 0.034600851854037128 0.04483233783882748 -0.14758939067500182 0.004064362913014462 0.027827589516306622 -0.026907055257711185 0.021657853774210645 0.027073804206452889 -0.058836420343536672 0.030275750961689187 0.010305834700147926
leaf_weight=32634.631540186703 2597.5097047537565 560.65980947390199 204.27534281462431 20650.895822596736 62.987209230661392 1159.2243272066116 63.047349259257317 1096.586298584938 928.98590616881847 500.99483972787857 2097.1911503747106 433.3764840811491 1223.0726296454668 230.34608961641788 295.04732900857925
leaf_count=47122 2173 3193 226 118086 51 661 277 3057 1552 1921 3610 432 5249 425 599
internal_value=0.00952527 0.00869486 -0.0243734 0.00910711 0.0118887 0.0348838 -0.0565429 0.0111392 0.00177114 -0.00234747 0.0122907 -0.0139499 -0.0202014 -0.0354224 -0.0453955
internal_weight=64738.8 62141.3 764.935 61376.4 40725.5 1285.26 126.035 39440.2 6805.6 5876.61 2598.19 3278.43 2845.05 1748.47 1518.12
internal_count=188634 186461 3419 183042 64956 989 328 63967 16845 15293 5531 9762 9330 6273 5848
is_linear=0
shrinkage=0.05


Tree=50
num_leaves=16
num_cat=0
split_feature=18 23 20 23 17 23 5 21 13 0 15 13 21 6 18
split_gain=415.658 410.04 430.851 400.213 327.114 325.59 470.706 457.461 300.235 300.06 297.078 278.166 290.899 323.432 266.586
threshold=47.856970000000004 272.50000000000006 2.5000000000000004 53.500000000000007 25.410643889618925 1.0000000180025095e-35 1.0000000180025095e-35 35.988830486202367 123.80091984231275 85.500000000000014 7.5000000000000009 2.2831800262812094 28.958607095926414 29.373032169746754 13.614980000000001
decision_type=10 2 2 2 10 2 2 10 8 2 2 8 8 2 10
left_child=1 2 3 5 -5 9 8 -8 -7 11 -4 12 13 -1 -13
right_child=-2 -3 10 4 -6 6 7 -9 -10 -11 -12 14 -14 -15 -16
leaf_value=-0.088719619780514819 -0.12366582689172478 -0.12999106734149746 0.019262397914110562 -0.11098892582812325 0.045042209154518675 0.026088470934039695 -0.16331687345200183 -0.0046190338978573508 -0.064073218845307062 -0.12936846993127801 0.057330970578170097 0.0066046455017766308 0.018615121740325046 0.020433328814220816 0.042345780461058871
leaf_weight=135.30852545797825 58.163562931120396 52.207831159234047 1719.1724021732807 121.38770334422588 46.310316205024719 4988.0342796631157 63.366632342338562 159.8768562823534 93.95072466135025 39.422974891960621 730.57318043708801 48001.698429835029 8035.5988590475172 135.88141056150198 527.41684238612652
leaf_count=450 276 222 1767 517 34 5255 312 269 364 210 187 165855 12290 140 494
internal_value=0.00981717 0.00993716 0.0100502 0.00924186 -0.0678695 0.00945002 0.021297 -0.04974 0.0244194 0.00834483 0.0306193 0.00844066 0.0168957 -0.0340221 0.00699327
internal_weight=64908.4 64850.2 64798 62348.3 167.698 62180.6 5305.23 223.243 5081.99 56875.3 2449.75 56835.9 8306.79 271.19 48529.1
internal_count=188642 188366 188144 186190 551 185639 6200 581 5619 179439 1954 179229 12880 590 166349
is_linear=0
shrinkage=0.05


Tree=51
num_leaves=16
num_cat=0
split_feature=18 23 20 16 15 17 23 21 18 18 19 19 13 15 15
split_gain=373.571 361.98 401.844 405.867 363.626 307.565 373.732 313.526 453.123 668.656 427.403 778.382 421.062 478.131 406.351
threshold=47.856970000000004 272.50000000000006 2.5000000000000004 1.5000000000000002 10.500000000000002 50.574901445466494 9.5000000000000018 29.977003942181344 0.38150000000000006 0.30337500000000001 6.0193590035907647e-17 -6.6173681723002927e-18 146.1235216819974 1.5000000000000002 7.5000000000000009
decision_type=10 2 2 2 2 8 2 10 8 10 10 10 8 2 2
left_child=1 2 3 5 -5 7 -7 8 9 -1 11 12 -10 -14 -9
right_child=-2 -3 -4 4 -6 6 -8 14 10 -11 -12 -13 13 -15 -16
leaf_value=-0.0040290609723776238 -0.11686945499116963 -0.12037966390873445 0.029612922436063976 -0.054100063654090508 0.020773615760423827 0.0052860363957962578 -0.090523388398991211 0.023861790053346023 0.012479490583881342 -0.12041736804051964 0.034178413323888386 -0.081653787389905308 -0.041499454347947821 0.018987034051306858 -0.066407521845164422
leaf_weight=2542.2864550426602 58.465342983603477 53.528026506304741 2407.823349185288 474.31102666258812 246.1836858689785 24403.8276588507 102.10633536428213 6359.2460883706808 24300.645233668387 129.60644510388374 1994.0390035957098 228.72240914404392 783.25772292912006 560.26235456764698 127.04075518250465
leaf_count=5611 276 222 1954 2663 733 123827 452 6254 38107 599 2074 828 3206 1476 360
internal_value=0.00934814 0.00946243 0.00957019 0.00879483 -0.0285104 0.00923178 0.00488627 0.0121078 0.00998698 -0.00968092 0.011873 0.0101535 0.0109729 -0.0162727 0.022092
internal_weight=64771.4 64712.9 64659.4 62251.5 720.495 61531 24505.9 37025.1 30538.8 2671.89 27866.9 25872.9 25644.2 1343.52 6486.29
internal_count=188642 188366 188144 186190 3396 182794 124279 58515 51901 6210 45691 43617 42789 4682 6614
is_linear=0
shrinkage=0.05


Tree=52
num_leaves=16
num_cat=0
split_feature=18 23 23 14 15 0 23 15 14 18 6 18 18 19 19
split_gain=337.156 322.211 314.34 281.485 265.619 247.315 246.172 569.275 402.933 280.848 259.353 244.572 345.089 406.461 378.362
threshold=47.856970000000004 272.50000000000006 1.0000000180025095e-35 16.500000000000004 9.5000000000000018 85.500000000000014 9.5000000000000018 8.5000000000000018 2.5000000000000004 0.45492500000000008 47.140314852840525 13.614980000000001 2.9260850000000005 1.7386001670365241e-16 -3.651160923286719e-16
decision_type=10 2 2 2 2 2 2 2 2 10 2 10 10 10 8
left_child=1 2 3 4 5 11 -4 8 9 -8 -11 12 -1 14 -14
right_child=-2 -3 6 -5 -6 -7 7 -9 -10 10 -12 -13 13 -15 -16
leaf_value=0.0081734312868945586 -0.11096157483190223 -0.11251005602040992 0.025344099739358462 0.04494179617313887 -0.022770977952413226 -0.12060171468312786 0.0019569652938643835 0.047652405874049071 -0.11418987707849598 -0.13163960026234192 0.032621215035240722 0.040033500521463948 -0.0036911158574767372 0.0094683783369215822 -0.10299984774223202
leaf_weight=54725.659615335055 58.502549562603235 54.390795290470123 4868.6289203725755 508.10489755123854 712.49643493443727 37.286396354436874 1430.5279055610299 582.41288110613823 87.595170751214027 76.797122925519943 34.84117703139782 590.76256367564201 165.94494467973709 422.41621855646372 227.53895004838705
leaf_count=174223 276 222 5085 448 2461 199 2185 275 365 343 27 541 330 684 978
internal_value=0.00890798 0.00901691 0.00911969 0.00789317 0.00756207 0.00794696 0.0190597 0.00522586 -0.00993465 -0.00400268 -0.0803474 0.00803266 0.00769212 -0.0245823 -0.0611424
internal_weight=64583.9 64525.4 64471 57390.2 56882.1 56169.6 7080.8 2212.17 1629.76 1542.17 111.638 56132.3 55541.6 815.9 393.484
internal_count=188642 188366 188144 179864 179416 176955 8280 3195 2920 2555 370 176756 176215 1992 1308
is_linear=0
shrinkage=0.05


Tree=53
num_leaves=16
num_cat=0
split_feature=18 17 19 19 18 19 18 18 18 1 11 4 17 6 21
